{"params": {"branch_net": {"layers_0": {"bias": [0.019135966897010803, 0.047528382390737534, 0.07773156464099884, -0.009338871575891972, 0.018265942111611366, 0.00716632092371583, 0.006264620926231146, 0.0108879329636693, 0.0244248416274786, 0.07826700061559677, 0.011203781701624393, 0.008726220577955246, 0.03964278846979141, 0.09407425671815872, -0.01734521985054016, -0.0005782857188023627, 0.007291806396096945, 0.022191425785422325, 0.05721696466207504, 0.018852123990654945, 0.02436801791191101, 0.011389845982193947, 0.020323554053902626, 0.014585926197469234, 0.026072682812809944, 0.042920418083667755, 0.03450830653309822, 0.014843810349702835, 0.005396759603172541, 0.09162195771932602, -0.024028241634368896, 0.012936818413436413, 0.043937355279922485, 0.009639041498303413, 0.02337772026658058, 0.03582713007926941, 0.07008369266986847, 0.026578661054372787, -0.009271785616874695, 0.018190860748291016, -0.001346974866464734, 0.025714997202157974, 0.019046753644943237, 0.01731264404952526, 0.01174966525286436, 0.10162380337715149, 0.03453376516699791, 0.008149443194270134, 0.027854835614562035, -0.009324255399405956, 0.015101113356649876, 0.009198106825351715, 0.00331460265442729, 0.016558431088924408, 0.018567992374300957, 0.009453313425183296, 0.03604365512728691, 0.03433336317539215, 0.026500366628170013, 0.01915515400469303, 0.1281740665435791, 0.12139782309532166, 0.116092249751091, -0.005235494580119848], "kernel": [[0.6223340034484863, -0.2599557340145111, 0.4489462375640869, 0.14468209445476532, 0.13985028862953186, -0.2105710357427597, 0.17656806111335754, -0.22768573462963104, -0.01049710065126419, -0.64447420835495, -0.4407510757446289, -0.19607041776180267, -0.3961552679538727, 0.5746744871139526, 0.22490958869457245, -0.04571002721786499, -0.5660474300384521, 0.5363962650299072, -0.23194102942943573, 0.2059621810913086, 0.24083387851715088, -0.46956759691238403, 0.08874841034412384, -0.3469970226287842, -0.4462609887123108, 0.3074668049812317, 0.5600424408912659, -0.609336256980896, -0.42395731806755066, 0.04315881431102753, -0.05294598266482353, -0.43771371245384216, -0.5973613858222961, 0.7452935576438904, -0.21337763965129852, -0.2763325273990631, 0.1630496382713318, -0.20993582904338837, -0.09851299226284027, 0.13915352523326874, -0.13243389129638672, -0.5437257289886475, 0.1512635052204132, -0.006988228298723698, -0.28545936942100525, -0.24212388694286346, -0.14134304225444794, -0.03531210124492645, -0.15619878470897675, -0.02539025992155075, -0.018308771774172783, 0.10712189227342606, 0.0699944868683815, 0.2204383760690689, 0.49962085485458374, 0.5173264145851135, -0.06607622653245926, -0.20032063126564026, 0.46386024355888367, -0.1510925441980362, 0.0046312687918543816, 0.3966882526874542, -0.46664127707481384, -0.4942428767681122], [0.550342321395874, -0.6582886576652527, -0.31307002902030945, 0.4730934500694275, -0.35780882835388184, 0.6205894947052002, 0.696727991104126, 0.35633447766304016, 0.6063370108604431, -0.15301513671875, -0.5753426551818848, 0.5263349413871765, -0.3001779317855835, -0.6207136511802673, -0.5495595335960388, 0.13734935224056244, -0.015984851866960526, 0.7979591488838196, 0.2732412815093994, -0.5195481777191162, 0.13934440910816193, 0.17101600766181946, -0.42310523986816406, -0.36440369486808777, 0.5100082159042358, -0.25585827231407166, 0.44772589206695557, -0.12006200850009918, -0.07537895441055298, 0.27567145228385925, 0.44222813844680786, 0.314731627702713, -0.5320416688919067, 0.3865952789783478, -0.12044786661863327, 0.17311561107635498, -0.07770425081253052, -0.7515268325805664, 0.25172972679138184, -0.298367977142334, -0.38500484824180603, 0.4555552303791046, 0.05100986361503601, -0.19528482854366302, 0.22098633646965027, -0.45960670709609985, -0.27695637941360474, 0.6946104168891907, 0.5200243592262268, -0.5611556172370911, 0.1711120903491974, -0.41955065727233887, 0.3223716616630554, 0.6119138598442078, 0.23621079325675964, -0.6876676082611084, 0.012940151616930962, 0.2585234045982361, -0.20466433465480804, -0.2903873026371002, 0.1496380865573883, 0.006540275178849697, 0.2610684633255005, 0.24433575570583344], [-0.5093685388565063, 0.5527169108390808, 0.16872619092464447, 0.15683209896087646, -0.08755826205015182, -0.14485764503479004, 0.35489991307258606, 0.3436945378780365, 0.5505352020263672, -0.041323889046907425, 0.12196175009012222, 0.5574929714202881, 0.660071611404419, 0.5283928513526917, -0.44538208842277527, 0.3393542170524597, -0.36232975125312805, 0.5073275566101074, -0.17041105031967163, -0.6690335869789124, 0.5827886462211609, 0.2936037480831146, -0.02782605215907097, -0.13363264501094818, 0.09207327663898468, 0.14316916465759277, -0.4524843096733093, -0.11342530697584152, 0.03598427027463913, 0.27062880992889404, 0.26864859461784363, -0.060352031141519547, 0.08792024850845337, -0.22082394361495972, -0.1609567403793335, -0.3455442190170288, 0.2513805031776428, 0.35859087109565735, -0.13220997154712677, 0.3427693843841553, -0.2693435847759247, 0.2313726246356964, 0.4259782135486603, -0.7331088185310364, 0.5283100605010986, 0.09489821642637253, -0.24392184615135193, -0.22538262605667114, -0.130231112241745, -0.1261133998632431, 0.6882349848747253, 0.6209939122200012, -0.5820015668869019, -0.41257697343826294, -0.45279237627983093, 0.21235916018486023, -0.5640463829040527, 0.3799983859062195, 0.47105228900909424, -0.3351178467273712, -0.5454347133636475, -0.2895195782184601, -0.38764065504074097, -0.2205882966518402], [0.0905960276722908, -0.11396069079637527, 0.7362936735153198, -0.03997020795941353, 0.5807503461837769, 0.31754401326179504, 0.1092311218380928, -0.035745348781347275, -0.13799706101417542, -0.2802501618862152, 0.02685113064944744, -0.30004215240478516, 0.5155784487724304, 0.8866091966629028, 0.36905637383461, 0.1823531538248062, -0.618451714515686, -0.13847757875919342, -0.31682494282722473, 0.491020530462265, -0.18516620993614197, -0.06617628037929535, 0.09478044509887695, -0.4232194423675537, -0.6823387145996094, -0.7195907235145569, 0.22391918301582336, -0.1699391007423401, -0.571361243724823, -0.4163382053375244, -0.09996264427900314, 0.006435445975512266, 0.4278997480869293, 0.16224676370620728, -0.3750903010368347, 0.5383036136627197, 0.3472369611263275, -0.6859818696975708, 0.0459723174571991, -0.6883295178413391, -0.01434104610234499, 0.3753170967102051, 0.12015991657972336, -0.372203528881073, -0.4167732000350952, 0.02538437768816948, -0.6994693875312805, 0.07260551303625107, 0.6149477362632751, 0.3819045424461365, -0.4227886199951172, 0.4715079069137573, 0.06646108627319336, -0.7430068254470825, 0.04691041260957718, -0.322965532541275, 0.36120352149009705, 0.3206176459789276, -0.030147166922688484, 0.3267505168914795, 0.021241292357444763, 0.3326962888240814, -0.4832003116607666, -0.11951790750026703], [-0.2929687798023224, 0.15196098387241364, 0.12998127937316895, 0.2719532549381256, 0.41507992148399353, 0.1599135547876358, 0.5058538317680359, 0.06140705943107605, 0.0329442024230957, -0.5431065559387207, 0.5590946674346924, -0.291107714176178, -0.18909962475299835, -0.34956449270248413, 0.005761404056102037, -0.28924328088760376, 0.24732594192028046, 0.5669641494750977, 0.06072197109460831, -0.31249749660491943, -0.5483903288841248, -0.12241963297128677, -0.03614214062690735, 0.3496871292591095, 0.4773801565170288, 0.40833476185798645, -0.697907567024231, -0.2627441883087158, -0.33366313576698303, -0.41436100006103516, -0.1091492623090744, -0.32346922159194946, 0.367224782705307, -0.2161346971988678, 0.05786188691854477, -0.12760689854621887, 0.20962312817573547, -0.47833678126335144, 0.030227944254875183, 0.13727247714996338, -0.11827395111322403, -0.21514540910720825, 0.40501680970191956, 0.08335157483816147, 0.24988867342472076, 0.05032452940940857, -0.21947497129440308, 0.5127387046813965, -0.3144483268260956, -0.1261260211467743, 0.3861940801143646, 0.24921159446239471, -0.0854952335357666, 0.07176338136196136, -0.020062321797013283, 0.44062209129333496, 0.21697327494621277, 0.0019275700906291604, -0.22569960355758667, -0.004572522826492786, 0.05012476071715355, -0.7751715779304504, -0.16282528638839722, 0.7312750220298767], [-0.4163639545440674, 0.6540047526359558, -0.08150088042020798, -0.36978697776794434, 0.17784784734249115, 0.057583168148994446, 0.31722015142440796, -0.11192445456981659, -0.1675875037908554, 0.06843288987874985, 0.24047107994556427, -0.04483460634946823, -0.011988072656095028, -0.30647897720336914, -0.14009931683540344, 0.4588215947151184, -0.11376429349184036, 0.22728991508483887, -0.7442917823791504, -0.1737118363380432, 0.28818970918655396, 0.3188171684741974, 0.4357250928878784, -0.24722497165203094, -0.06503013521432877, -0.3773875832557678, -0.40470096468925476, 0.08148513734340668, 0.17522959411144257, -0.9083607196807861, 0.18212756514549255, -0.0697864517569542, -0.2770043909549713, 0.4700097441673279, -0.719223141670227, 0.40194642543792725, 0.11207321286201477, -0.3907114565372467, 0.051738180220127106, 0.2925181984901428, 0.36273571848869324, -0.09416867047548294, -0.1321350634098053, -0.321677565574646, -0.1770322620868683, -0.4215366840362549, 0.49037477374076843, 0.11966598033905029, 0.004625245928764343, -0.2011176198720932, 0.025890905410051346, 0.3538382351398468, -0.1438618302345276, -0.22887925803661346, 0.4782278835773468, -0.08196112513542175, -0.2813775837421417, -0.12193439155817032, 0.13871489465236664, 0.6535808444023132, -0.24073074758052826, 0.19562719762325287, 0.3197159171104431, -0.42738664150238037], [0.36643707752227783, 0.11567054688930511, 0.0037877585273236036, -0.1844940036535263, 0.5445223450660706, -0.2562043070793152, 0.11377488076686859, -0.012597130611538887, 0.23956237733364105, -0.5957866311073303, -0.037154145538806915, -0.04006427153944969, 0.7232123613357544, -0.1764841228723526, -0.1871470808982849, -0.17300279438495636, -0.23906685411930084, 0.2759473919868469, 0.691889226436615, 0.2549305260181427, -0.2575627565383911, -0.15402570366859436, 0.018884815275669098, 0.543624997138977, 0.28868725895881653, -0.33916160464286804, -0.6640898585319519, -0.7713834643363953, -0.22060564160346985, -0.2104865312576294, 0.206323504447937, -0.5042115449905396, 0.5008295774459839, -0.4835265874862671, -0.3923744857311249, 0.20329689979553223, 0.06299076229333878, -0.3362579345703125, -0.39160141348838806, 0.5303381085395813, 0.34436124563217163, 0.22100360691547394, 0.35721105337142944, 0.6236770749092102, -0.23463347554206848, 0.4015573263168335, 0.43268251419067383, -0.1507280319929123, -0.5920611023902893, -0.032371535897254944, -0.35376065969467163, -0.7435938119888306, 0.14009828865528107, -0.020685214549303055, 0.08591584116220474, 0.23506952822208405, -0.1168002262711525, 0.4507388472557068, -0.28307050466537476, -0.031732723116874695, -0.466980516910553, 0.6832852959632874, -0.33472707867622375, -0.4666118621826172], [0.05878777429461479, 0.02513442561030388, 0.23317113518714905, 0.21043424308300018, -0.35858139395713806, 0.35233888030052185, -0.00901353545486927, -0.027464289218187332, 0.26138395071029663, -0.279839426279068, 0.5139814019203186, -0.30021801590919495, 0.16453611850738525, -0.12784194946289062, -0.3056712746620178, 0.12332533299922943, -0.4145905077457428, -0.11166667938232422, 0.36133673787117004, 0.13503707945346832, -0.2829377353191376, 0.713252067565918, 0.6194676160812378, 0.2962726652622223, -0.20870454609394073, -0.7394444346427917, -0.23505841195583344, -0.2577895224094391, -0.5272685885429382, -0.5089962482452393, 0.16879652440547943, 0.5760685801506042, 0.17859601974487305, 0.5732259750366211, -0.22055840492248535, -0.012969667091965675, 0.6745363473892212, 0.05633148178458214, 0.05246373265981674, -0.07131455093622208, 0.6485594511032104, -0.686491847038269, 0.4330258071422577, -0.41945284605026245, -0.4923761785030365, 0.24669316411018372, -0.5359221696853638, -0.17321616411209106, -0.4265696704387665, 0.177509143948555, 0.33289095759391785, -0.34163936972618103, 0.5469285845756531, 0.5485804677009583, -0.2538696229457855, 0.25837889313697815, -0.29166722297668457, -0.09375474601984024, 0.30460500717163086, -0.3944884240627289, 0.13245907425880432, -0.02537631057202816, 0.196795254945755, 0.05489228665828705]]}, "layers_2": {"bias": [-0.002019267063587904, 0.00565602071583271, -0.0025577349588274956, 8.1241836596746e-05, 0.015280668623745441, 0.0014932984486222267, -0.0011925211874768138, 0.0037881892640143633, 0.0035296338610351086, -0.005068480037152767, 0.004534522537142038, -0.02226100116968155, 0.009789381176233292, -0.0004590839089360088, 0.00849962793290615, -0.0158412903547287, -0.015352598391473293, 0.0784989520907402, -0.0005498731625266373, 0.013101601973176003, 0.015671243891119957, 0.015376925468444824, -0.0005942531861364841, 0.013555086217820644, 0.022207284346222878, 0.0050557744689285755, 0.00020529539324343204, 0.0017793419538065791, 0.01598316803574562, -0.005072631407529116, 0.058062486350536346, -0.021746881306171417, -0.01854880340397358, 0.07508664578199387, -0.0009219415951520205, 0.0016905670054256916, 0.015579205937683582, 0.00493716262280941, 0.002410764107480645, 0.029655268415808678, 0.18401029706001282, 0.002840010216459632, 0.0041672042571008205, 0.06450124084949493, 0.015621379017829895, 0.0032564233988523483, -0.0020846687257289886, -0.0012350294273346663, 0.0018222954822704196, 0.01496892236173153, -0.002901956671848893, 0.004977563861757517, 0.010470481589436531, 0.012777858413755894, 0.007588046137243509, 0.005327268503606319, -0.0003068455553147942, 0.02523520588874817, 0.004813575651496649, 0.013280457817018032, 0.027905941009521484, 0.014209756627678871, 0.011443199589848518, -0.0032896643970161676], "kernel": [[-0.2389524132013321, 0.04769789054989815, -0.24207060039043427, -0.025403836742043495, -0.17331978678703308, -0.22525319457054138, 0.016600951552391052, -0.27797189354896545, -0.029724249616265297, -0.1962416023015976, 0.10182235389947891, 0.10065807402133942, 0.11715332418680191, -0.17753784358501434, 0.11309675127267838, 0.0885796919465065, -0.1290224939584732, 0.04912438243627548, -0.21410027146339417, 0.08882922679185867, 0.1446535885334015, 0.11347651481628418, -0.0736028328537941, 0.23412147164344788, -0.44147005677223206, 0.04765884205698967, -0.2801049053668976, 0.024173829704523087, -0.1199735626578331, -0.09849899262189865, -0.08227021992206573, -0.15996059775352478, -0.12222356349229813, -0.1943945288658142, -0.03707343339920044, 0.10862254351377487, 0.15052638947963715, -0.1685839593410492, 0.07657337933778763, -0.19902195036411285, -0.10379402339458466, 0.2813463807106018, 0.028390822932124138, 0.12992475926876068, 0.02351728081703186, 0.15964891016483307, 0.09088335931301117, 0.21635501086711884, 0.030336402356624603, -0.06937997043132782, -0.17949892580509186, -0.2294268161058426, -0.016799431294202805, 0.10374277085065842, 0.035205498337745667, 0.15399552881717682, 0.06106569990515709, 0.039110105484724045, 0.14382712543010712, 0.14319443702697754, 0.0018496077973395586, 0.11908446997404099, -0.02892615646123886, -0.21734397113323212], [0.0767589882016182, 0.15930312871932983, -0.027161579579114914, -0.2605763077735901, 0.11743007600307465, 0.01925397478044033, -0.25854766368865967, 0.12412269413471222, -0.045754481106996536, 0.059872109442949295, 0.14089369773864746, 0.14450997114181519, -0.06801079213619232, 0.17031832039356232, 0.00722862221300602, 0.0316123329102993, 0.047497574239969254, -0.08734802901744843, -0.09978336840867996, -0.19653360545635223, -0.17116206884384155, 0.03737209737300873, 0.009465818293392658, 0.3379656672477722, 0.22511343657970428, -0.10356933623552322, 0.24467860162258148, 0.07836851477622986, 0.2259202003479004, -0.2226581573486328, -0.24246010184288025, 0.049380380660295486, -0.054959557950496674, 0.1945488303899765, 0.12047050893306732, 0.1357257068157196, -0.04047676548361778, 0.021517286077141762, -0.04449278488755226, -0.027947980910539627, 0.04995293915271759, -0.11185406893491745, -0.028313448652625084, 0.05084045231342316, -0.04301603510975838, -0.2897866368293762, 0.09994255006313324, -0.01994694583117962, 0.15096130967140198, 0.034597691148519516, -0.23743262887001038, 0.13026803731918335, -0.22303268313407898, 0.06315434724092484, -0.052753232419490814, -0.20093607902526855, -0.10787448287010193, -0.016004323959350586, 0.08577685803174973, 0.22352156043052673, 0.24289841949939728, 0.17535868287086487, -0.11126171797513962, -0.10512319952249527], [0.06827019155025482, 0.08108657598495483, -0.00415843864902854, 0.1533702313899994, -0.07037975639104843, 0.11464999616146088, 0.03409447893500328, 0.2826971709728241, -0.16002841293811798, 0.07027942687273026, -0.09121476858854294, 0.14370402693748474, 0.19861705601215363, 0.03898166865110397, 0.12792178988456726, -0.014611157588660717, -0.009966458193957806, 0.05221725255250931, -0.16644233465194702, -0.2144363969564438, 0.08020098507404327, 0.09765125066041946, 0.07758913934230804, -0.13021299242973328, -0.2075035125017166, -0.18962536752223969, 0.15480715036392212, -0.26967182755470276, -0.03820951655507088, 0.005301566794514656, 0.25105586647987366, 0.15061399340629578, -0.2537856101989746, 0.008817101828753948, 0.0228442195802927, -0.052530109882354736, -0.07415065914392471, 0.05342494696378708, -0.031133368611335754, -0.13282570242881775, 0.08489809930324554, -0.11420746892690659, -0.0046601081266999245, 0.11479543894529343, 0.19422045350074768, 0.12062441557645798, -0.10026264935731888, -0.15389986336231232, 0.0426776297390461, -0.07351233065128326, -0.022141147404909134, 0.19710615277290344, -0.03358328714966774, 0.211452454328537, -0.019948583096265793, 0.1472892016172409, 0.10037785023450851, 0.13204623758792877, 0.13265298306941986, 0.20117275416851044, 0.10058912634849548, 0.1377013772726059, 0.04428921639919281, -0.12425575405359268], [-0.050617918372154236, -0.10423970967531204, 0.12684816122055054, 0.056243862956762314, 0.17896336317062378, 0.05388543754816055, -0.009176021441817284, 0.12385906279087067, -0.12717978656291962, 0.06174490600824356, -0.0044175549410283566, 0.004903981927782297, -0.12367017567157745, -0.08559034764766693, -0.1612965613603592, -0.15244176983833313, 0.048941221088171005, 0.02801266685128212, -0.07071949541568756, -0.08281320333480835, 0.17735019326210022, 0.03435879945755005, -0.016759339720010757, -0.11756981909275055, 0.0684715136885643, -0.04641968011856079, -0.1195325031876564, -0.07952968776226044, -0.06478329002857208, -0.0005917330272495747, 0.16952760517597198, 0.03472404181957245, -0.04341471567749977, 0.0005772190052084625, 0.1921747624874115, 0.18130122125148773, 0.14495447278022766, -0.1652427464723587, 0.09649957716464996, -0.09938155114650726, -0.016915569081902504, 0.13346120715141296, 0.11762465536594391, 0.33998408913612366, 0.2109922170639038, -0.2593150734901428, -0.03749588131904602, 0.1474333256483078, 0.0065936129540205, -0.06973958015441895, 0.08648403733968735, -0.024376336485147476, 0.19122806191444397, -0.156879261136055, 0.18544526398181915, 0.09483316540718079, 0.20997712016105652, 0.022070175036787987, -0.06667319685220718, 0.037211958318948746, 0.01829810068011284, -0.05384575575590134, 0.09567394107580185, 0.023507695645093918], [0.1969766467809677, 0.3045092523097992, -0.1756046563386917, 0.1664649099111557, -0.05246451497077942, 0.0033227531239390373, 0.060108739882707596, -0.022526618093252182, -0.1000497043132782, -0.029182229191064835, 0.08244077116250992, -0.22847506403923035, -0.2892697751522064, -0.010865272022783756, 0.12313557416200638, -0.04484027624130249, 0.10892204195261002, 0.162153959274292, -0.0008964017033576965, -0.03594188392162323, 0.06094719469547272, -0.1385934203863144, 0.11188739538192749, 0.07887100428342819, 0.2609216868877411, 0.21999868750572205, 0.04148110747337341, 0.04593600705265999, 0.3055204451084137, 0.06994353979825974, -0.24386641383171082, 0.004491389729082584, 0.1164180114865303, 0.3728039264678955, 0.08475116640329361, -0.056697260588407516, -0.10522916913032532, 0.03577909246087074, 0.12697884440422058, 0.03428651764988899, 0.11053793132305145, -0.12961672246456146, 0.10382633656263351, 0.019430655986070633, -0.2304137796163559, 0.24920731782913208, 0.06747818738222122, -0.007070600986480713, -0.009234433993697166, -0.04872949421405792, -0.21203796565532684, 0.16246730089187622, 0.23359060287475586, 0.003426862647756934, 0.048497188836336136, 0.26771804690361023, -0.0736829861998558, -0.07220417261123657, -0.06666696816682816, -0.27234068512916565, -0.13189640641212463, -0.08407588303089142, 0.024434922263026237, 0.12869861721992493], [0.10431455075740814, 0.024861574172973633, -0.23500429093837738, 0.10255463421344757, -0.07005676627159119, 0.092017263174057, -0.17316511273384094, 0.23438052833080292, 0.18998239934444427, -0.1385982781648636, 0.006660532206296921, -0.1135309487581253, 0.021168291568756104, 0.10368547588586807, -0.17088600993156433, 0.1286434680223465, 0.056511104106903076, -0.10251867771148682, -0.1066981852054596, -0.05906590819358826, 0.20331330597400665, -0.008696979843080044, 0.016098199412226677, 0.08491954952478409, -0.09588818997144699, 0.1640578657388687, 0.07842976599931717, 0.1717764139175415, -0.23299795389175415, 0.14201371371746063, -0.1785447895526886, -0.12460276484489441, -0.19719450175762177, 0.17613551020622253, 0.008911462500691414, -0.17740637063980103, -0.22670288383960724, 0.230817511677742, -0.06030269339680672, -0.23581674695014954, -0.35500648617744446, 0.040811847895383835, 0.14972937107086182, 0.02778877504169941, -0.050573233515024185, 0.09274280816316605, 0.03433606028556824, -0.16754046082496643, -0.10451391339302063, 0.08343467861413956, -0.004511966835707426, -0.21964578330516815, 0.13845649361610413, -0.08636418730020523, 0.10298051685094833, -0.14395743608474731, 0.10752444714307785, 0.20227698981761932, -0.09100764244794846, 0.11874029785394669, -0.1957702487707138, 0.13158130645751953, -0.09957315772771835, 0.048582348972558975], [-0.3045414686203003, 0.061367519199848175, 0.02580372430384159, -0.19155754148960114, -0.0541992150247097, -0.10460513830184937, 0.19537824392318726, -0.07538691908121109, 0.0644763708114624, -0.009577910415828228, 0.08694562315940857, 0.20056790113449097, -0.06952200084924698, 0.022614214569330215, 0.1507790982723236, 0.0634729340672493, -0.03645901009440422, -0.17540909349918365, 0.17518799006938934, -0.011750202625989914, 0.027082977816462517, -0.041902314871549606, 0.04063289985060692, -0.06473615765571594, -0.19355708360671997, -0.10908874869346619, 0.08365163952112198, 0.14899666607379913, -0.041475050151348114, 0.15152251720428467, -0.10224902629852295, 0.04431074485182762, 0.05341786891222, 0.13458950817584991, -0.29050716757774353, -0.18218427896499634, -0.05306319147348404, 0.019466828554868698, -0.16806571185588837, -0.2207781970500946, 0.17491203546524048, -0.20410078763961792, 0.1766710728406906, 0.10127811878919601, 0.0893978551030159, 0.1285032033920288, 0.08138711005449295, -0.040942735970020294, 0.1869446337223053, -0.06637720763683319, 0.08388012647628784, -0.03233281522989273, -0.06621415168046951, -0.009235302917659283, 0.15215817093849182, 0.0403456911444664, -0.11445185542106628, -0.042703062295913696, 0.07184930890798569, 0.0147942416369915, -0.06308365613222122, -0.0030395996291190386, -0.03184482082724571, -0.12381491810083389], [-0.17600621283054352, 0.050442349165678024, 0.08279351145029068, -0.04563600942492485, 0.019405579194426537, 0.011625073850154877, 0.11857426166534424, -0.008203541859984398, 0.008426382206380367, 0.06898320466279984, -0.047044914215803146, -0.07169169187545776, -0.15387950837612152, -0.259233295917511, 0.11394263058900833, -0.12987418472766876, 0.041348379105329514, 0.0031282734125852585, 0.07850395888090134, -0.006833504885435104, -0.22944039106369019, 0.06479556113481522, 0.2482723444700241, 0.12460346519947052, -0.054746758192777634, -0.04451756551861763, -0.17412137985229492, -0.0037643120158463717, 0.09472682327032089, -0.049818508327007294, 0.118313729763031, 0.025625741109251976, -0.1473228931427002, 0.10635288059711456, 0.15857265889644623, 0.0852842628955841, -0.08375687152147293, -0.17555226385593414, -0.08059298247098923, 0.01291110273450613, 0.22558210790157318, -0.021388400346040726, -0.029549535363912582, 0.12945669889450073, 0.046943116933107376, 0.21697407960891724, 0.045157186686992645, 0.06041913107037544, -0.04189698398113251, 0.00784208532422781, -0.10151896625757217, -0.08843329548835754, 0.05735258385539055, 0.005742084700614214, 0.01164790615439415, 0.11216461658477783, -0.06383370608091354, -0.01928671821951866, -0.015354286879301071, -0.0686347484588623, 0.08859620243310928, -0.12624655663967133, -0.06723255664110184, -0.07327060401439667], [-0.018740199506282806, -0.046412624418735504, 0.01299220323562622, 0.07960571348667145, 0.03298971801996231, 0.018352344632148743, -0.05113285407423973, 0.1113850548863411, -0.26740559935569763, -0.23015029728412628, 0.11117260158061981, -0.22842277586460114, 0.07826735079288483, -0.009219718165695667, 0.24892958998680115, 0.01211748830974102, -0.2531835734844208, 0.04718213155865669, 0.1110353171825409, 0.013533507473766804, 0.12174338847398758, 0.06719797849655151, 0.23212352395057678, -0.12443558871746063, 0.37135574221611023, 0.11420445889234543, -0.15125583112239838, -0.2115323394536972, -0.04519378021359444, 0.2235030084848404, 0.23361068964004517, -0.10344003140926361, -0.08745355904102325, -0.03147125244140625, 0.13001741468906403, 0.07457348704338074, -0.10497170686721802, -0.046271730214357376, 0.060323312878608704, 0.23231330513954163, -0.13059808313846588, 0.1382993906736374, -0.17273181676864624, -0.030466163530945778, 0.0529928021132946, 0.2354530543088913, -0.16207589209079742, 0.05741110071539879, 0.13034304976463318, 0.01610119640827179, -0.20215196907520294, 0.14132094383239746, 0.24187198281288147, -0.14891888201236725, -0.03852127119898796, -0.1741340160369873, -0.2221752107143402, 0.08544322103261948, 0.011233200319111347, 0.21400102972984314, -0.1242172047495842, 0.09297267347574234, -0.1397266983985901, -0.022358644753694534], [-0.07400671392679214, -0.06236471235752106, -0.042439427226781845, 0.032503724098205566, -0.17951726913452148, 0.05361958220601082, -0.015332373790442944, -0.06689593940973282, -0.15333044528961182, 0.05552138015627861, 0.020446425303816795, 0.0306080374866724, 0.07083152234554291, 0.1365603655576706, 0.09489787369966507, 0.19529379904270172, -0.20105859637260437, -0.0011221524327993393, 0.04798884317278862, 0.14188940823078156, 0.18658968806266785, -0.048337120562791824, 0.1281370222568512, -0.15815891325473785, -0.08214390277862549, -0.03872149437665939, 0.06623205542564392, 0.0880880281329155, -0.13756807148456573, 0.10948805510997772, 0.18060803413391113, -0.21840369701385498, 0.18666362762451172, 0.3687639534473419, -0.20297515392303467, -0.014017193578183651, 0.02820011042058468, -0.02113976888358593, -0.07109224796295166, -0.11706897616386414, 0.3460983633995056, 0.009366441518068314, 0.1592164784669876, -0.10482954233884811, -0.02814333327114582, 0.07602324336767197, 0.055468082427978516, -0.26257795095443726, 0.20538508892059326, 0.06455063819885254, 0.244662806391716, 0.04794800654053688, 0.18430468440055847, 0.15127217769622803, -0.021369464695453644, -0.2599232494831085, 0.19773553311824799, -0.12426873296499252, 0.0948253720998764, -0.13122518360614777, -0.12848913669586182, -0.25964266061782837, -0.21695466339588165, -0.06337687373161316], [0.054657384753227234, 0.16455569863319397, -0.20199072360992432, -0.04205840453505516, -0.0649363100528717, 0.21179667115211487, 0.18294642865657806, 0.09631425887346268, 0.09817817062139511, 0.2114228904247284, 0.291932076215744, 0.05303002893924713, 0.14954403042793274, -0.1090509369969368, -0.12282150983810425, 0.12094957381486893, 0.053269412368535995, 0.4222511947154999, 0.2557896077632904, -0.14625437557697296, 0.2370598465204239, -0.179181307554245, 0.03860538452863693, -0.10681130737066269, -0.011909899301826954, -0.012414139695465565, 0.11530469357967377, 0.10675305128097534, 0.06601318717002869, 0.05746667832136154, -0.1417633295059204, -0.17557014524936676, 0.09402019530534744, 0.029812779277563095, 0.13472385704517365, 0.19343464076519012, -0.2490105777978897, -0.025606771931052208, 0.2742977738380432, -0.217646986246109, 0.4389672875404358, -0.21666181087493896, 0.15316589176654816, 0.0709749385714531, 0.09131880104541779, 0.02993234246969223, 0.04273354262113571, -0.038190439343452454, 0.053863003849983215, -0.1049341931939125, 0.03443228080868721, 0.10120532661676407, -0.22490809857845306, -0.1138208657503128, -0.023928022012114525, -0.12702570855617523, 0.21510103344917297, -0.0829906016588211, 0.22855953872203827, -0.08056309074163437, 0.3695867359638214, 0.00994778610765934, 0.11588463187217712, -0.11252854019403458], [-0.10795874893665314, 0.018740838393568993, 0.17289792001247406, 0.1620679348707199, -0.09167075902223587, 0.04319005459547043, 0.13732750713825226, 0.03983156010508537, -0.02068793587386608, -0.1133318617939949, -0.003605529433116317, 0.19316163659095764, -0.21472576260566711, 0.10029292106628418, -0.09851481020450592, 0.020173661410808563, 0.236361563205719, -0.2483307421207428, -0.056858573108911514, -0.2527011036872864, -0.12124926596879959, -0.01480210293084383, 0.21624888479709625, 0.018146878108382225, 0.08393175899982452, -0.036087967455387115, -0.10377125442028046, 0.2119833081960678, -0.09758133441209793, -0.22121743857860565, 0.08628683537244797, -0.01915166713297367, -0.008010354824364185, -0.09894700348377228, -0.007831244729459286, 0.11570464074611664, -0.004412731155753136, 0.11990271508693695, 0.11347457021474838, -0.12465806305408478, 0.07639888674020767, 0.07916141301393509, -0.13267341256141663, -0.18484817445278168, -0.1985083967447281, 0.18590155243873596, 0.10797708481550217, -0.16371102631092072, -0.1760195642709732, -0.07035214453935623, 0.136524498462677, 0.10225673764944077, 0.026087546721100807, -0.1376882642507553, -0.11357723921537399, 0.08589060604572296, -0.052680034190416336, -0.19040627777576447, 0.09057039022445679, -0.16458503901958466, -0.15744157135486603, 0.2875308394432068, 0.10075927525758743, 0.11544136703014374], [0.0019745444878935814, -0.1529819518327713, -0.05518653243780136, -0.08643832057714462, 0.11980859935283661, 0.11123076826334, 0.07048613578081131, -0.052500009536743164, 0.06465736776590347, -0.023403918370604515, 0.08831456303596497, -0.09466594457626343, -0.06660989671945572, -0.09701773524284363, 0.07089783996343613, -0.26070642471313477, -0.012524228543043137, 0.2587105929851532, 0.09333286434412003, 0.20200571417808533, 0.16163134574890137, 0.1939696967601776, -0.259419322013855, -0.06164493411779404, 0.02874418906867504, 0.1821785569190979, -0.26040416955947876, -0.023280685767531395, 0.3149538040161133, -0.1223568543791771, 0.07326968014240265, -0.13557083904743195, 0.16045138239860535, 0.11784341931343079, -0.2497463971376419, -0.25836196541786194, -0.018372030928730965, 0.05245707556605339, -0.1867193579673767, 0.24256162345409393, -0.27295923233032227, 0.14911246299743652, -0.09477530419826508, 0.35618987679481506, -0.06433843821287155, -0.029245974496006966, 0.06166021153330803, -0.07685959339141846, -0.031101441010832787, -0.08731527626514435, -0.03151903674006462, -0.11795282363891602, 0.001287340885028243, -0.19828751683235168, 0.10160985589027405, 0.12910759449005127, -0.04938417300581932, 0.2567020356655121, 0.016994956880807877, -0.10075068473815918, -0.07616637647151947, -0.31448444724082947, 0.1274322122335434, -0.16394498944282532], [-0.03887181729078293, 0.20965369045734406, -0.0057960799895226955, 0.03679944947361946, -0.004812661092728376, 0.131465882062912, -0.029456203803420067, 0.022246435284614563, -0.009922636672854424, 0.09036858379840851, -0.12749922275543213, -0.15023019909858704, 0.0794980600476265, -0.04709805175662041, 0.1541503369808197, -0.12103111296892166, 0.13300254940986633, -0.11187566816806793, 0.11440043151378632, 0.13328926265239716, -0.1858324259519577, 0.22556106746196747, 0.05343903601169586, 0.1286255121231079, -0.043114036321640015, -0.17283451557159424, -0.08839349448680878, 0.15398895740509033, 0.06297504901885986, 0.041677385568618774, -0.08732889592647552, 0.05196386203169823, 0.022284092381596565, 0.19046756625175476, 0.19720467925071716, -0.3059958517551422, -0.01108251791447401, 0.13447020947933197, 0.1393589973449707, -0.2354244589805603, 0.13381542265415192, 0.09423231333494186, -0.001234966330230236, -0.020605983212590218, -0.20946341753005981, 0.023002345114946365, -0.04965226724743843, 0.11317072063684464, 0.1658349484205246, -0.14700162410736084, 0.11965330690145493, 0.15471573173999786, 0.21884147822856903, 0.05220568925142288, -0.060469433665275574, -0.06214987486600876, 0.06554494053125381, -0.10333168506622314, -0.0881941094994545, 0.11505338549613953, 0.08951468020677567, -0.027476739138364792, -0.017348458990454674, -0.3496526777744293], [0.1554391235113144, -0.08443769067525864, 0.2794961929321289, -0.11276213079690933, 0.23388159275054932, 0.11168200522661209, -0.02661401405930519, 0.0004769112274516374, 0.14280526340007782, 0.1479080468416214, 0.023992644622921944, 0.11330650001764297, 0.12728115916252136, -0.04313720390200615, 0.11845625936985016, 0.09035620093345642, 0.003152651246637106, -0.06293641775846481, 0.07013203203678131, 0.10265189409255981, 0.13851413130760193, -0.032801076769828796, -0.11656596511602402, -0.13609571754932404, -0.203562930226326, 0.18211933970451355, 0.07733910530805588, -0.053639888763427734, -0.08923804014921188, 0.06960773468017578, -0.19662587344646454, -0.0864097997546196, -0.10948827862739563, 0.2858688533306122, -0.08200830221176147, -0.06281741708517075, -0.19708752632141113, -0.12291201949119568, 0.09224693477153778, 0.12199244648218155, 0.45637938380241394, -0.2190369814634323, 0.009142911061644554, -0.02305528149008751, 0.016098568215966225, -0.12096564471721649, -0.08967611938714981, 0.038364727050065994, -0.0829404816031456, -0.0675356313586235, -0.16924044489860535, -0.10811008512973785, -0.08468589931726456, 0.05309643596410751, 0.004904570523649454, 0.10034999996423721, -0.12204133719205856, -0.11724529415369034, 0.13585612177848816, 0.05665220692753792, 0.04044990986585617, -0.10732045024633408, -0.2762703001499176, -0.061860598623752594], [-0.2140733003616333, 0.15045993030071259, -0.2656131088733673, 0.131880983710289, 0.14647682011127472, 0.08774302899837494, 0.1448136419057846, -0.08152499049901962, -0.0626959428191185, 0.1794469803571701, 0.14647942781448364, 0.10523289442062378, -0.12339930981397629, -0.18150290846824646, 0.06069663166999817, -0.1752796620130539, 0.14937426149845123, -0.20119571685791016, -0.12032513320446014, -0.09790294617414474, -0.2520145773887634, -0.029578378424048424, 0.014991299249231815, 0.04441254213452339, 0.054669443517923355, 0.273004412651062, 0.1943843811750412, 0.05238465219736099, 0.1794504076242447, -0.0722677931189537, 0.004785464145243168, 0.019417066127061844, -0.17691335082054138, 0.03928099200129509, -0.1912573277950287, -0.223658949136734, 0.17987528443336487, 0.04073202982544899, -0.19599851965904236, 0.09418424963951111, -0.05047016590833664, -0.15347111225128174, 0.17600223422050476, 0.03456646576523781, -0.08260652422904968, 0.15597011148929596, 0.11856286972761154, -0.10073118656873703, 0.03605658560991287, 0.03462107479572296, 0.06602109968662262, -0.040516197681427, 0.10446622222661972, 0.18196329474449158, 0.16486756503582, 0.011336799710988998, 0.12565834820270538, 0.012816752307116985, -0.0030112252570688725, -0.0011782795190811157, 0.13710293173789978, 0.24275872111320496, 0.05300972983241081, -0.1945001780986786], [0.04347200691699982, -0.15328216552734375, 0.06060070917010307, -0.050890322774648666, -0.06691660732030869, 0.031228234991431236, 0.06686194241046906, 0.025307374075055122, -0.013565058819949627, 0.0910128504037857, 0.26367267966270447, 0.0773511677980423, 0.18632516264915466, 0.09821906685829163, -0.006072299089282751, 0.0152086541056633, 0.09346745908260345, -0.23837114870548248, -0.10528697818517685, -0.12472272664308548, 0.028810447081923485, -0.0425976924598217, 0.06116931512951851, 0.07080816477537155, -0.11519365757703781, -0.22255657613277435, 0.06082972139120102, 0.029756711795926094, 0.0733659639954567, -0.0018225074745714664, 0.10219793021678925, 0.16027630865573883, -0.18467605113983154, 0.20957982540130615, -0.11362574249505997, 0.025403577834367752, -0.15958033502101898, 0.17568492889404297, 0.059218816459178925, -0.09432774782180786, 0.1498335301876068, -0.23589646816253662, 0.09825024008750916, -0.07430177927017212, 0.1426023244857788, -0.12759315967559814, 0.03951619192957878, -0.08894197642803192, 0.14371605217456818, -0.017431490123271942, -0.08067841827869415, -0.007799278013408184, 0.04665284976363182, -0.1513853669166565, 0.15319135785102844, -0.11660567671060562, -0.06527363508939743, 0.027065705507993698, 0.10300038009881973, 0.16115789115428925, 0.01465819962322712, -0.13074104487895966, 0.10662918537855148, 0.039896801114082336], [-0.13596367835998535, -0.24062487483024597, -0.2245236486196518, -0.10491379350423813, 0.032174259424209595, -0.07432866096496582, -0.12781120836734772, -0.1369803100824356, -0.011181791312992573, 0.13800106942653656, 0.08505444973707199, -0.03488749638199806, -0.05444582551717758, -0.1158268079161644, -0.010127588175237179, 0.04853656142950058, -0.05809224024415016, 0.08741335570812225, -0.15558362007141113, -0.02502092532813549, 0.08045228570699692, 0.11464349925518036, -0.08016263693571091, 0.09326633810997009, 0.19375938177108765, 0.23454846441745758, 0.12132896482944489, -0.22100071609020233, 0.14495785534381866, 0.05606510117650032, 0.06010545417666435, -0.07954470068216324, -0.019102202728390694, -0.023635493591427803, 0.04023250192403793, -0.06833892315626144, 0.20163895189762115, 0.03660837560892105, -0.15430206060409546, 0.13029879331588745, 0.08281261473894119, -0.11435093730688095, 0.09361787140369415, 0.14620071649551392, 0.04490382596850395, 0.22972488403320312, -0.06739436835050583, -0.07097293436527252, -0.22179198265075684, 0.14907050132751465, -0.09506502002477646, 0.01848686672747135, 0.1778298169374466, 0.20065876841545105, 0.10107965767383575, -0.07028013467788696, -0.0803685337305069, 0.016379129141569138, -0.21782104671001434, -0.003375388216227293, 0.13268733024597168, 0.17575988173484802, 0.019318541511893272, -0.09124402701854706], [0.03626374155282974, -0.21178941428661346, -0.13524623215198517, 0.27712297439575195, -0.2437065690755844, -0.00923218484967947, -0.1602628380060196, 0.20894531905651093, 0.10659209638834, 0.0707254633307457, -0.21107684075832367, -0.13777247071266174, -0.09994205087423325, -0.20116782188415527, 0.025525376200675964, -0.20142795145511627, -0.06782684475183487, 0.05427680164575577, 0.03722609579563141, 0.133878692984581, 0.07239797711372375, 0.12499836087226868, 0.033968761563301086, -0.2617717981338501, -0.03451865538954735, 0.18438613414764404, -0.0064499774016439915, 0.15402735769748688, 0.1958128660917282, 0.010927346535027027, 0.18330861628055573, 0.042037565261125565, 0.09855815768241882, 0.016937019303441048, 0.03543606400489807, 0.07022368907928467, 0.04314461350440979, 0.27176544070243835, -0.01805366389453411, 0.018213467672467232, -0.1297648847103119, 0.1288241147994995, -0.03328908979892731, 0.23482882976531982, 0.1569160372018814, 0.06078280135989189, -0.04633048176765442, -0.02410043217241764, -0.037610117346048355, -0.11089737713336945, 0.12723946571350098, -0.06090669706463814, 0.16495588421821594, 0.1664954423904419, 0.117789126932621, 0.19930577278137207, -0.0867132842540741, 0.16929340362548828, 0.2190389186143875, 0.1501813381910324, -0.24508929252624512, 0.02032719925045967, -0.23254044353961945, -0.2593984603881836], [0.06881184875965118, 0.0896192342042923, 0.17095014452934265, -0.12869493663311005, 0.001325323828496039, 0.0882580354809761, -0.19706618785858154, -0.16991747915744781, -0.05840710550546646, -0.112541064620018, -0.18849359452724457, -0.15218308568000793, -0.009987572208046913, -0.11992861330509186, 0.2227054387331009, 0.12524014711380005, -0.13398483395576477, 0.1832685023546219, -0.15545694530010223, 0.12323479354381561, 0.029095664620399475, -0.008101839572191238, -0.014951304532587528, -0.11435092985630035, -0.24722537398338318, 0.10630080103874207, -0.110740065574646, 0.0855904072523117, 0.17375989258289337, -0.11740852892398834, 0.07753857225179672, 0.04065738990902901, 0.008420540019869804, 0.04600830003619194, 0.07573249191045761, -0.03922522813081741, 0.18481513857841492, 0.17193038761615753, 0.18855105340480804, 0.1979745775461197, -0.05928697809576988, 0.23865745961666107, -0.04468976706266403, -0.10480743646621704, 0.17552302777767181, 0.029634341597557068, 0.17520277202129364, -0.12914955615997314, -0.1190398633480072, 0.03986404836177826, -0.12010204046964645, 0.137231707572937, -0.1624644547700882, 0.013744174502789974, 0.02039657160639763, 0.13120485842227936, -0.014354115352034569, 0.13324086368083954, -0.259572833776474, 0.14887279272079468, 0.06850764155387878, -0.21063826978206635, -0.008994285948574543, -0.09426110982894897], [0.18489255011081696, 0.19453850388526917, 0.14903415739536285, 0.0745214894413948, 0.019519301131367683, 0.058360304683446884, 0.07773026823997498, -0.0010826458455994725, 0.15695005655288696, -0.062178369611501694, 0.1416984647512436, 0.019090762361884117, -0.11819357424974442, 0.18309317529201508, 0.04779726266860962, -0.010168511420488358, 0.030343465507030487, 0.16481426358222961, -0.14391659200191498, -0.012893032282590866, 0.04366711527109146, 0.25036078691482544, 0.1809910237789154, 0.16479358077049255, -0.16957521438598633, -0.022951073944568634, -0.17153804004192352, 0.08078017085790634, 0.06055456027388573, -0.09462176263332367, 0.07488411664962769, 0.1255987137556076, 0.11554507166147232, -0.024376239627599716, -0.10683256387710571, 0.09195119142532349, 0.10241103917360306, 0.09302863478660583, -0.06925446540117264, 0.06791526079177856, 0.3684843182563782, -0.1149291843175888, -0.09163287281990051, 0.05134543403983116, 0.18577463924884796, -0.2533849775791168, -0.014655347913503647, -0.09136860072612762, 0.27617302536964417, -0.12900395691394806, 0.26346707344055176, -0.18280522525310516, -0.0005092328647151589, -0.09230510890483856, -0.1035027727484703, -0.06601939350366592, -0.06940820813179016, 0.11427925527095795, -0.247980535030365, -0.0023093002382665873, -0.05281940847635269, 0.14258190989494324, -0.20634035766124725, 0.1336183398962021], [0.0618332140147686, 0.0007187226437963545, 0.2268892228603363, -0.20337235927581787, -0.13297055661678314, 0.10174419730901718, -0.07371613383293152, 0.02815360203385353, -0.06782925873994827, -0.10486447811126709, 0.10071491450071335, -0.24790261685848236, 0.019864553585648537, 0.14093458652496338, -0.022641658782958984, 0.10964762419462204, 0.07176118344068527, 0.14141212403774261, 0.06962881237268448, 0.1810443103313446, -0.012800769880414009, 0.21846772730350494, -0.004811721388250589, 0.03314497694373131, -0.04395890608429909, 0.15559683740139008, -0.0679408609867096, 0.0550454817712307, 0.17298747599124908, -0.2224336862564087, 0.23716336488723755, 0.2323911190032959, 0.19590476155281067, -0.028264528140425682, -0.04894198849797249, -0.04243617504835129, -0.04633776471018791, -0.0443648062646389, -0.05658669397234917, 0.006713513284921646, -0.4729900658130646, 0.19280502200126648, -0.02139686979353428, 0.36979636549949646, 0.03244559094309807, 0.09949856996536255, -0.08186236768960953, -0.08560982346534729, -0.11712811142206192, 0.1639772355556488, 0.136704221367836, 0.04246385022997856, -0.0017932732589542866, -0.05710472911596298, -0.025951774790883064, 0.01623981073498726, -0.1694236397743225, 0.11285106837749481, -0.24599307775497437, -0.034585967659950256, -0.10935932397842407, 0.13832299411296844, 0.04819538816809654, 0.008177046664059162], [-0.08152413368225098, 0.23069053888320923, 0.07011113315820694, 0.026148976758122444, 0.05539855360984802, 0.1152215376496315, 0.21322184801101685, -0.19985610246658325, 0.25663718581199646, -0.06758757680654526, -0.12249856442213058, 0.1202395111322403, -0.0771116316318512, 0.14056693017482758, 0.15197983384132385, 0.003637347836047411, -0.133528470993042, 0.010423674248158932, 0.06113807111978531, -0.037288811057806015, -0.1345946043729782, -0.1190844178199768, 0.046000417321920395, 0.04964205622673035, 0.191368967294693, 0.024657951667904854, 0.10852593183517456, 0.0429404154419899, 0.13653557002544403, -0.21265652775764465, 0.12107270956039429, -0.0674910619854927, -0.10443270206451416, -0.07082600891590118, -0.18575486540794373, 0.06876592338085175, -0.004663781262934208, -0.03191152587532997, 0.013846534304320812, -0.10515493154525757, 0.06220616400241852, 0.02553470805287361, -0.0006354884244501591, 0.038646649569272995, 0.10807865113019943, -0.074982188642025, 0.06832467019557953, -0.014148060232400894, 0.2720921039581299, 0.1460644155740738, -0.026307646185159683, -0.0863271951675415, 0.1370299756526947, 0.28058457374572754, -0.19294753670692444, -0.008875223807990551, 0.24697230756282806, 0.07534775137901306, 0.13323307037353516, -0.1171637699007988, -0.11729909479618073, -0.03302942216396332, -0.07836256176233292, -0.18497885763645172], [-0.20052628219127655, 0.22482265532016754, 0.16382616758346558, -0.016777073964476585, -0.04663060978055, -0.03686913475394249, 0.05792838707566261, 0.1944838911294937, 0.0036195970606058836, -0.016049450263381004, 0.12963396310806274, -0.2082451432943344, 0.05061889812350273, -0.2611190378665924, 0.1575547754764557, 0.08580884337425232, -0.11246324330568314, -0.2236296683549881, 0.12076486647129059, -0.16328157484531403, -0.032717522233724594, 0.21762047708034515, 0.18779884278774261, 0.07007744908332825, 0.2890537679195404, -0.22811689972877502, 0.0865025743842125, 0.05772911757230759, -0.16920462250709534, -0.07498936355113983, 0.2968631386756897, -0.0588558204472065, -0.09530743211507797, -0.03690517693758011, 0.1399735063314438, 0.043391525745391846, 0.0012119202874600887, -0.21953986585140228, 0.03226052224636078, 0.017988141626119614, -0.08441543579101562, -0.06497517973184586, -0.1639687716960907, 0.03802071884274483, 0.2208920568227768, 0.08971496671438217, 0.11180988699197769, 0.02167988382279873, -0.008430175483226776, 0.049912143498659134, -0.13956984877586365, 0.03898715227842331, -0.2209816873073578, 0.07189417630434036, -0.005254026968032122, 0.10917617380619049, -0.009897087700664997, 0.1055920198559761, 0.2795249819755554, 0.04075019806623459, 0.28117114305496216, 0.0990823283791542, 0.2303282767534256, 0.1135367751121521], [-0.13285885751247406, -0.09945769608020782, 0.11118999123573303, 0.05507589131593704, 0.012662916444242, 0.1357639580965042, -0.01478860154747963, 0.13524481654167175, 0.11485747992992401, 0.07158184796571732, 0.07173619419336319, 0.20006486773490906, -0.14505460858345032, 0.18107157945632935, -0.007723688613623381, 0.0913165733218193, 0.15031737089157104, 0.004423159174621105, -0.10683638602495193, -0.11932187527418137, -0.015792714431881905, -0.07558794319629669, 0.1292041689157486, 0.01997380517423153, 0.133758544921875, -0.2073630690574646, 0.0571460984647274, 0.06554827839136124, 0.14833538234233856, -0.17939062416553497, 0.17687304317951202, -0.029922977089881897, 0.1251084953546524, 0.04925922304391861, 0.06378425657749176, 0.12623967230319977, 0.03090701811015606, 0.050384875386953354, -0.22203756868839264, -0.012219980359077454, 0.12518341839313507, 0.21208776533603668, 0.012924724258482456, -0.08688955754041672, 0.09808403998613358, 0.3415599465370178, 0.13789206743240356, 0.1219160407781601, 0.10561556369066238, -0.04260088503360748, 0.1463908553123474, 0.003749998053535819, -0.05151794105768204, 0.08671538531780243, -0.18833689391613007, -0.07555476576089859, -0.05591534450650215, 0.2026854306459427, 0.2626810371875763, 0.1308176964521408, 0.145164355635643, -0.06478314101696014, -0.017732564359903336, 0.20497238636016846], [-0.1206563338637352, 0.08714387565851212, -0.06930217891931534, 0.14167115092277527, -0.11615292727947235, 0.15449966490268707, 0.0554007813334465, 0.1717952936887741, -0.011027052998542786, -0.11603302508592606, 0.02044287510216236, -0.09005463868379593, -0.10413042455911636, 0.054934002459049225, -0.022606467828154564, 0.08934063464403152, 0.17362967133522034, 0.05823541060090065, -0.11311682313680649, -0.009226162917912006, 0.14779502153396606, 0.13442115485668182, 0.23545341193675995, 0.04423494264483452, -0.03903626650571823, 0.17764116823673248, 0.00869701337069273, -0.0479850247502327, 0.06957883387804031, -0.10530387610197067, -0.15452827513217926, -0.21029940247535706, -0.05774325504899025, -0.01520666666328907, -0.030321113765239716, 0.20425452291965485, -0.14900192618370056, -0.19691985845565796, -0.0056983111426234245, -0.09304051101207733, 0.4198712706565857, -0.10510698705911636, -0.06962376087903976, 0.11043151468038559, -0.24545030295848846, 0.03131621330976486, -0.09626924246549606, -0.05970517918467522, 0.05628364905714989, 0.11415495723485947, -0.04708367958664894, 0.02462451346218586, 0.17569966614246368, 0.2063462734222412, 0.012573896907269955, 0.19488009810447693, 0.18268734216690063, 0.13303503394126892, 0.1615227460861206, -0.1753532588481903, 0.14596153795719147, -0.014271380379796028, 0.12282904982566833, -0.04006316140294075], [0.0008128859335556626, 0.034912679344415665, -0.22437891364097595, 0.14130061864852905, -0.0235982034355402, -0.12181898951530457, -0.06893209367990494, 0.08121546357870102, -0.05071663856506348, 0.03134285286068916, 0.021809102967381477, 0.009361758828163147, 0.2286890596151352, -0.03760039061307907, 0.17332333326339722, -0.24464735388755798, -0.04526783898472786, -0.2679080367088318, 0.04985155165195465, -0.12833096086978912, 0.05627194046974182, 0.2054000198841095, 0.11205882579088211, -0.04845038056373596, -0.05900568142533302, -0.12599842250347137, 0.059239812195301056, -0.1234159991145134, 0.05306674540042877, -0.15451380610466003, 0.22944402694702148, -0.027569742873311043, -0.12795566022396088, -0.26551541686058044, 0.05334845930337906, 0.261516809463501, 0.1124299168586731, 0.07955092936754227, 0.24243535101413727, 0.20797540247440338, 0.2805953025817871, 0.08159110695123672, -0.09882501512765884, -0.23173458874225616, 0.03916746750473976, 0.016571030020713806, 0.062405843287706375, -0.11439889669418335, -0.10292979329824448, 0.16288122534751892, -0.062426723539829254, 0.12394075840711594, 0.006306737195700407, -0.12164492905139923, 0.2095297873020172, -0.1222238764166832, -0.04823940247297287, -0.07374439388513565, 0.006933881435543299, -0.008924448862671852, 0.12557920813560486, -0.12628436088562012, -0.10419707000255585, -0.14826421439647675], [0.1477600634098053, -0.041289906948804855, 0.1665072739124298, 0.1466987282037735, 0.12704835832118988, 0.18972618877887726, 0.10309669375419617, 0.0008189374348148704, -0.09990832954645157, 0.056387580931186676, 0.2823548913002014, -0.10799649357795715, -0.059741102159023285, -0.07895571738481522, 0.09682101011276245, -0.02523895539343357, -0.07588206976652145, 0.10510396957397461, 0.2027318775653839, -0.00665777362883091, 0.03781254589557648, 0.01780628226697445, -0.09331805258989334, 0.11784439533948898, -0.1044812798500061, 0.04385876655578613, 0.14654244482517242, 0.10676075518131256, 0.038571201264858246, -0.07739848643541336, -0.024736670777201653, -0.19052962958812714, -0.16414658725261688, -0.02386782318353653, 0.17946086823940277, 0.15034329891204834, 0.20783282816410065, 0.08748255670070648, 0.05568541958928108, -0.05994796380400658, -0.015089215710759163, 0.10311250388622284, -0.05398573726415634, 0.28388792276382446, 0.06241694837808609, -0.0006724685663357377, -0.1588919758796692, -0.038670141249895096, -0.2010577917098999, -0.11942407488822937, -0.07575137913227081, -0.043605029582977295, 0.11737588047981262, -0.132056325674057, -0.1300988346338272, -0.18254245817661285, -0.16152358055114746, 0.11770614981651306, -0.1178116425871849, 0.1512826830148697, 0.19474484026432037, 0.1383858174085617, -0.07288290560245514, -0.0716300755739212], [0.1596517264842987, 0.07590210437774658, 0.10810991376638412, -0.2697983682155609, -0.012424883432686329, 0.05915067344903946, -0.03957914188504219, -0.13152965903282166, 0.1253407895565033, 0.09348157048225403, -0.21287837624549866, -0.11279924213886261, 0.17778661847114563, 0.15962927043437958, -0.17001642286777496, -0.07376270741224289, -0.2662157416343689, -0.08958833664655685, 0.04701336473226547, 0.1438838541507721, -0.12571874260902405, 0.1353566199541092, 0.12046928703784943, 0.1536242663860321, -0.09683241695165634, -0.09691391885280609, -0.05712909996509552, -0.02165401354432106, -0.044456273317337036, 0.03423522785305977, -0.14030680060386658, 0.07196540385484695, 0.13670501112937927, 0.2584347128868103, -0.05027376860380173, 0.161705881357193, 0.05768584832549095, 0.08422548323869705, 0.18066075444221497, 0.16314655542373657, 0.42479628324508667, -0.17858682572841644, -0.1283436417579651, -0.19875943660736084, 0.034056395292282104, 0.09303470700979233, -0.07158666104078293, 0.10005822032690048, -0.00464476877823472, 0.21952247619628906, 0.040654364973306656, 0.004178298637270927, 0.09174686670303345, 0.03304602950811386, -0.021233906969428062, 0.1475144326686859, 0.07025264948606491, -0.17716538906097412, -0.08490711450576782, 0.12518873810768127, -0.18238790333271027, 0.2353239357471466, 0.21409381926059723, -0.21459919214248657], [0.16343152523040771, -0.19517911970615387, 0.1583581119775772, -0.006387180648744106, -0.05995533987879753, 0.10068240761756897, -0.022817367687821388, 0.016813836991786957, 0.004868458956480026, 0.08375288546085358, -0.060686592012643814, -0.12203770130872726, 0.2530181407928467, -0.26500412821769714, -0.24177120625972748, -0.07347419112920761, -0.023215485736727715, 0.2621205747127533, 0.08423315733671188, 0.03522082045674324, 0.11048848181962967, 0.11652420461177826, -0.026011422276496887, -0.07562988251447678, -0.23350639641284943, 0.13930217921733856, -0.19224810600280762, 0.0445064939558506, -0.108369380235672, -0.012703003361821175, 0.10815083980560303, 0.033559028059244156, 0.032359857112169266, 0.031724508851766586, 0.03774229809641838, -0.14580002427101135, -0.1377033144235611, 0.11321791261434555, -0.1115451455116272, -0.24891597032546997, 0.30350086092948914, 0.04025917500257492, -0.016445128247141838, 0.009793766774237156, -0.022352324798703194, 0.24362792074680328, -0.10394775867462158, 0.04094761982560158, -0.06993848830461502, 0.15589205920696259, 0.04491178318858147, -0.10222921520471573, -0.057474732398986816, 0.18025532364845276, 0.02355201542377472, -0.0930301770567894, -0.06786192208528519, -0.14853063225746155, 0.1865943968296051, -0.15726137161254883, -0.09070003032684326, -0.04161754995584488, 0.01273313257843256, 0.14273150265216827], [0.005487545859068632, 0.030684297904372215, -0.12666399776935577, -0.05832169950008392, -0.0037438850849866867, 0.05597482994198799, -0.11716512590646744, 0.13583697378635406, 0.11678523570299149, -0.056890569627285004, 0.015942836180329323, 0.0037605208344757557, 0.017790602520108223, 0.1441161185503006, -0.13475081324577332, -0.0014295110013335943, -0.11468911916017532, 0.2600206434726715, -0.03377636522054672, 0.006946719717234373, 0.07778478413820267, -0.10740092396736145, -0.18230511248111725, 0.11744300276041031, 0.5171728134155273, 0.07427887618541718, 0.08327144384384155, -0.17246219515800476, 0.10921259969472885, 0.16294661164283752, -0.04887234419584274, -0.22214671969413757, 0.09699010103940964, 0.12721103429794312, 0.023514186963438988, 0.10400865972042084, 0.061951056122779846, -0.03276661038398743, 0.08338507264852524, 0.19749951362609863, -0.24604590237140656, -0.0609460286796093, -0.06685391068458557, 0.24540869891643524, 0.16315007209777832, -0.07430814206600189, -0.011384285055100918, -0.2501063048839569, -0.02447870559990406, 0.13930954039096832, 0.12641088664531708, 0.15983009338378906, -0.17989695072174072, -0.079490065574646, -0.1787089705467224, 0.21948301792144775, -0.1812000721693039, 0.12787914276123047, -0.09117833524942398, -0.10296344012022018, 0.2585262358188629, 0.06218012049794197, 0.3497909605503082, 0.13940981030464172], [0.02236063778400421, 0.26026487350463867, 0.006772099062800407, -0.19966793060302734, 0.07729512453079224, 0.11401177197694778, -0.09004735946655273, -0.14882324635982513, 0.1390957236289978, -0.08119308203458786, 0.16872774064540863, 0.10515336692333221, 0.19996094703674316, 0.05683159455657005, 0.22723396122455597, -0.024753356352448463, -0.07549327611923218, -0.0487087108194828, 0.052953556180000305, 0.015636369585990906, 0.09433373808860779, 0.20506486296653748, 0.06347347795963287, -0.06064636632800102, 0.060335271060466766, -0.08530984818935394, 0.21592821180820465, -0.22439321875572205, 0.15755720436573029, 0.04532564803957939, -0.04443893954157829, -0.07537522912025452, 0.14092284440994263, -0.0782422199845314, 0.31404662132263184, -0.10303817689418793, -0.14505122601985931, 0.1801314800977707, -0.05510289594531059, -0.1608021855354309, -0.2005486786365509, 0.1493530571460724, 0.037951987236738205, 0.09896715730428696, -0.26053956151008606, -0.24367760121822357, -0.16976819932460785, 0.04488725960254669, -0.07643935084342957, 0.03632539510726929, 0.1298884004354477, -0.05141854286193848, -0.04898354783654213, 0.0556221567094326, 0.03359967842698097, -0.16492320597171783, 0.16525639593601227, -0.12211135774850845, 0.11642055958509445, 0.07442734390497208, 0.04351537302136421, -0.12688283622264862, -0.041350461542606354, 0.1537565290927887], [0.04986906051635742, -0.16401782631874084, -0.19240224361419678, 0.22871945798397064, -0.06721953302621841, -0.19218043982982635, 0.022712359204888344, 0.17998237907886505, 0.11155551671981812, -0.2041715830564499, 0.12636320292949677, 0.019621213898062706, 0.13374535739421844, 0.15694798529148102, 0.28283777832984924, 0.029216952621936798, -0.2009652853012085, -0.28097647428512573, -0.09912949800491333, 0.01916082575917244, -0.18656741082668304, 0.2370171695947647, -0.2153126448392868, 0.09774860739707947, 0.2778644561767578, -0.20730598270893097, 0.0727720633149147, 0.0857263058423996, -0.07684945315122604, 0.18846799433231354, -0.21195776760578156, 0.09125826507806778, 0.04157065972685814, 0.35138386487960815, -0.05423027276992798, 0.2483096718788147, -0.09064721316099167, -0.0065558128990232944, -0.04781772568821907, 0.027261653915047646, -0.5772446990013123, 0.029617922380566597, 0.1981991082429886, 0.23786306381225586, -0.1532936543226242, -0.07115825265645981, -0.15432725846767426, -0.1207892969250679, 0.0559208057820797, 0.031503062695264816, 0.052827388048172, 0.1377619206905365, 0.07769949734210968, -0.1959598958492279, 0.045211873948574066, -0.10450030118227005, -0.06587005406618118, 0.019181879237294197, -0.07880747318267822, 0.18411706387996674, -0.10139328986406326, -0.09017878770828247, -0.1219695657491684, 0.2241329401731491], [0.02872110716998577, -0.05899747461080551, 0.08353494852781296, 0.3832915127277374, -0.08531370759010315, -0.0489952526986599, -0.10228542983531952, -0.2886914312839508, -0.20602408051490784, 0.12521281838417053, 0.06894225627183914, -0.2616669833660126, -0.012282845564186573, -0.14752115309238434, -0.06971795856952667, -0.024255871772766113, 0.17316894233226776, -0.01425104308873415, -0.07900995016098022, -0.06821981817483902, 0.15111447870731354, -0.1329818069934845, 0.16595545411109924, 0.07671544700860977, 0.06835334748029709, -0.08100185543298721, -0.02347983419895172, 0.10823853313922882, -0.24692824482917786, -0.05309640243649483, 0.08204475045204163, -0.11152179539203644, 0.010768413543701172, 0.40459752082824707, 0.013071948662400246, 0.025261422619223595, -0.15237949788570404, 0.22578316926956177, -0.015849189832806587, -0.08238653838634491, 0.2779012620449066, -0.14371070265769958, 0.16204862296581268, 0.020850198343396187, 0.06412408500909805, 0.21626941859722137, -0.1509757786989212, -0.027250271290540695, 0.039495814591646194, 0.3961193263530731, 0.24839454889297485, 0.22602500021457672, 0.030811181291937828, 0.09867478907108307, -0.047246240079402924, -0.09910744428634644, -0.046788349747657776, -0.14277374744415283, -0.07448332011699677, 0.022348230704665184, -0.012302002869546413, 0.07234743237495422, 0.18090854585170746, 0.0489511676132679], [0.2834182679653168, 0.10819562524557114, -0.0611138790845871, -0.053672682493925095, -0.12785476446151733, 0.1497345268726349, -0.0052451808005571365, 0.0133754787966609, 0.06877981126308441, 0.226272314786911, 0.26377683877944946, 0.037078503519296646, 0.12684854865074158, -0.10300186276435852, 0.12654751539230347, -0.066202312707901, 0.062132254242897034, 0.22416388988494873, 0.12768064439296722, 0.1969473510980606, -0.024483559653162956, 0.1776343584060669, 0.05398298799991608, -0.04835500568151474, -0.08499668538570404, -0.09028691053390503, 0.03562755510210991, 0.0934569239616394, 0.01318349875509739, -0.054952945560216904, 0.11751250177621841, -0.13509376347064972, -0.2619895339012146, -0.15400758385658264, 0.10335437953472137, 0.029110170900821686, 0.16229455173015594, 0.0032877163030207157, -0.08453882485628128, -0.03389463573694229, -0.18915589153766632, -0.14853113889694214, -0.13841612637043, 0.019286634400486946, -0.21497519314289093, 0.16795466840267181, -0.020081203430891037, 0.00382861471734941, 0.259676069021225, 0.05732482671737671, 0.22385375201702118, -0.25377020239830017, 0.06706277281045914, -0.07006103545427322, -0.17553642392158508, 0.1642214059829712, -0.08677203953266144, -0.08343891054391861, 0.1500777006149292, -0.2539868652820587, -0.20308193564414978, 0.06878149509429932, -0.1920865923166275, -0.08277903497219086], [-0.17623107135295868, -0.19902260601520538, -0.04974762722849846, -0.0031351831275969744, -0.01637454703450203, 0.08874153345823288, 0.10816685855388641, 0.12868106365203857, 0.07012680917978287, 0.10855958610773087, 0.04219209775328636, -0.1961010992527008, 0.1984332799911499, 0.06136240065097809, -0.10588038712739944, 0.023644642904400826, 0.16613098978996277, 0.17941763997077942, -0.13161009550094604, 0.0024369528982788324, -0.025179948657751083, -0.08171580731868744, 0.018497120589017868, 0.006514030508697033, -5.5837768741184846e-05, 0.0889008492231369, 0.1623903065919876, 0.19896447658538818, -0.12378275394439697, -0.2224254310131073, 0.0936790481209755, -0.024838576093316078, 0.1914891004562378, -0.15320447087287903, -0.11561069637537003, 0.15532943606376648, 0.0208644550293684, 0.23490159213542938, 0.07372216880321503, -0.1145411878824234, 0.16377413272857666, 0.0591467022895813, 0.1839175969362259, 0.03346479311585426, 0.04403112456202507, -0.11659161001443863, -0.05951232090592384, 0.08109752088785172, 0.0637737438082695, -0.025340132415294647, -0.08532829582691193, 0.0998070240020752, -0.243134543299675, -0.05322025343775749, -0.11665607988834381, -0.10901051014661789, 0.12658889591693878, 0.13405413925647736, -0.21942229568958282, -0.003761615138500929, 0.025033319368958473, -0.08416840434074402, 0.15365225076675415, 0.051607850939035416], [-0.0753597840666771, 0.1633281111717224, 0.006277694832533598, 0.1064947172999382, 0.06479693204164505, 0.10788170993328094, -0.30710500478744507, -0.15493105351924896, -0.11934629827737808, 0.09677526354789734, -0.04077053815126419, -0.23146578669548035, 0.18459734320640564, -0.07694733887910843, 0.27261149883270264, -0.17720863223075867, 0.22615869343280792, 0.10129208117723465, -0.05421801283955574, 0.08061912655830383, -0.039084091782569885, 0.11794756352901459, 0.050565291196107864, 0.15978777408599854, 0.10298170149326324, 0.03393266350030899, 0.03632162883877754, -0.06369397789239883, -0.014945034869015217, 0.10307784378528595, 0.32125645875930786, 0.11843021214008331, -0.13387292623519897, 0.14078685641288757, -0.12340119481086731, -0.010442799888551235, -0.046561289578676224, 0.1040157899260521, -0.03820868581533432, -0.12445323914289474, -0.6135221123695374, -0.23374854028224945, -0.191523939371109, 0.2532452642917633, 0.240075945854187, -0.1479829102754593, -0.0038235592655837536, 0.019016368314623833, 0.04958115518093109, 0.2620818018913269, 0.07791461795568466, -0.07172119617462158, 0.035218749195337296, 0.06957816332578659, 0.06612350046634674, 0.009943666867911816, 0.1897825300693512, 0.13940316438674927, -0.09279204905033112, -0.009455445222556591, -0.09040684252977371, -0.0333981029689312, 0.008347964845597744, 0.02992425672709942], [0.03895685821771622, 0.07906512171030045, -0.07869679480791092, 0.010020050220191479, 0.11256618052721024, 0.2777591049671173, 0.07219323515892029, -0.14151963591575623, -0.15419846773147583, 0.007932676002383232, -0.23594944179058075, 0.024847568944096565, 0.006166848354041576, -0.1576034128665924, -0.027529466897249222, -0.24352265894412994, 0.14750078320503235, -0.1705380380153656, 0.02252884954214096, -0.17639672756195068, 0.2964875102043152, 0.15039998292922974, 0.04242657497525215, 0.0972181186079979, 0.15055787563323975, -0.021797768771648407, -0.03477874770760536, 0.09953109174966812, 0.026880275458097458, -0.09317445755004883, 0.03229658305644989, 0.037138305604457855, 0.10119257867336273, 0.03249938786029816, 0.14616306126117706, -0.17015588283538818, -0.027935752645134926, -0.05202553793787956, 0.24216532707214355, 0.2490876317024231, -0.1588321030139923, -0.030198298394680023, -0.10217393934726715, -0.0012452759547159076, 0.09702643752098083, -0.021255282685160637, -0.04590672627091408, 0.005852899979799986, 0.0299270898103714, 0.24293674528598785, -0.012806618586182594, 0.11943826824426651, -0.04033827409148216, 0.19612105190753937, 0.15565651655197144, 0.2593527138233185, 0.05734973028302193, -0.1353713572025299, 0.055008672177791595, -0.07738744467496872, -0.0318978950381279, -0.027651676908135414, -0.14995229244232178, 0.1425691395998001], [0.2379574030637741, 0.03607085347175598, -0.04920392110943794, 0.10389097034931183, 0.030231032520532608, -0.2614762485027313, -0.10582471638917923, -0.04946603253483772, -0.07951095700263977, 0.004559417255222797, 0.12471572309732437, -0.049868836998939514, 0.03436090797185898, -0.058357201516628265, 0.023403530940413475, -0.27127501368522644, 0.019839685410261154, 0.3156958222389221, 0.1367189735174179, 0.07961826771497726, -0.08222329616546631, 0.019790472462773323, 0.003096014494076371, -0.10121069103479385, -0.029290426522493362, 0.13445919752120972, 0.054404135793447495, 0.19003140926361084, 0.030418474227190018, 0.03309236839413643, 0.06123172491788864, -0.05332653969526291, 0.11157527565956116, 0.2678319811820984, -0.002047161338850856, -0.11163122206926346, 0.06585314869880676, 0.13921533524990082, 0.03862360864877701, 0.2042008489370346, -0.07422522455453873, 0.11146806180477142, -0.18257373571395874, 0.10922461003065109, -0.055702775716781616, -0.10129927843809128, -0.09391646087169647, -0.14751417934894562, -0.008834436535835266, -0.008245760574936867, 0.09636299312114716, 0.0102537265047431, -0.22641535103321075, -0.11991240829229355, 0.08668198436498642, 0.10521622002124786, -0.028083281591534615, -0.08612211048603058, -0.13359294831752777, 0.018892493098974228, -0.01947353407740593, -0.06850189715623856, 0.06964637339115143, 0.04706420749425888], [-0.10648100078105927, -0.08918040245771408, 0.04751737415790558, 0.07339631766080856, -0.0168097373098135, -0.08896980434656143, -0.07444550096988678, 0.07726186513900757, -0.05717926099896431, -0.15856477618217468, -0.17882220447063446, -0.07557432353496552, -0.28652825951576233, 0.04633476212620735, -0.20748722553253174, 0.03635793551802635, 0.055292174220085144, 0.1969035267829895, -0.06893383711576462, -0.12423732131719589, 0.06121217831969261, -0.013712660409510136, 0.10137458145618439, 0.2872413098812103, 0.05048815906047821, -0.15743285417556763, 0.19659815728664398, 0.1064179465174675, 0.14418065547943115, -0.19997262954711914, 0.001339827780611813, 0.226606085896492, -0.1636466085910797, -0.10146866738796234, 0.21864204108715057, 0.0918966755270958, -0.10275283455848694, 0.0036852576304227114, 0.13674482703208923, 0.15780511498451233, -0.2519325017929077, -0.12167046964168549, 0.16004323959350586, -0.26616033911705017, -0.025781573727726936, 0.09043840318918228, -0.06232035905122757, -0.2127455770969391, 0.06778445094823837, -0.08021461218595505, 0.036527689546346664, -0.01648636721074581, -0.07319504022598267, -0.11889880150556564, 0.16189664602279663, 0.09202496707439423, -0.014947635121643543, 0.019742239266633987, 0.07010320574045181, 0.022805364802479744, -0.11363309621810913, 0.05583901330828667, 0.11896975338459015, 0.19095928966999054], [0.04406261071562767, 0.204156294465065, 0.12166594713926315, 0.1600264012813568, -0.15330620110034943, -0.2952820658683777, 0.14490239322185516, -0.143222376704216, 0.1535939872264862, 0.07885339111089706, 0.20859235525131226, -0.0732528567314148, -0.11215823888778687, 0.018640737980604172, 0.11407890170812607, 0.14050184190273285, -0.05812423303723335, 0.35708341002464294, -0.006231420207768679, 0.11692635715007782, 0.05919523537158966, -0.14958323538303375, 0.01582450047135353, 0.09696394205093384, -0.18051445484161377, -0.011923924088478088, 0.10892494767904282, -0.046655286103487015, -0.1749531477689743, -0.09920167922973633, 0.07142911106348038, 0.009439421817660332, -0.020821591839194298, -0.00890600960701704, 0.010039201937615871, -0.14463533461093903, 0.12618573009967804, -0.023176854476332664, -0.0855097621679306, 0.13546282052993774, 0.1710488349199295, -0.05730079486966133, 0.32662105560302734, 0.26522746682167053, -0.2301016002893448, -0.058341026306152344, -0.03334673494100571, -0.19823575019836426, -0.06409770250320435, 0.09906192123889923, -0.14802493155002594, 0.12361340969800949, -0.2262338101863861, 0.12288415431976318, -0.019912052899599075, 0.06355961412191391, -0.09204328805208206, -0.08614616841077805, -0.057482216507196426, -0.077797532081604, 0.025311511009931564, 0.07804613560438156, 0.07264198362827301, -0.12182311713695526], [-0.09592541307210922, -0.25244927406311035, -0.23664194345474243, 0.09769360721111298, -0.029088187962770462, 0.22128163278102875, 0.04597250372171402, -0.010587772354483604, -0.2078447937965393, -0.11101891845464706, 0.009284453466534615, -0.1604221761226654, -0.07703874260187149, 0.06763985008001328, -0.027735931798815727, 0.03452635928988457, -0.18260636925697327, 0.18785424530506134, -0.023458003997802734, 0.21056771278381348, 0.09507524967193604, 0.08489710837602615, -0.26765546202659607, 0.10636862367391586, -0.036372583359479904, -0.03970017284154892, -0.00968873593956232, -0.00899437814950943, 0.056887973099946976, -0.20020830631256104, -0.02204764448106289, -0.2751171290874481, -0.05032109469175339, 0.2339811772108078, -0.0676589235663414, 0.014458678662776947, 0.05364033952355385, -0.15689708292484283, -0.11684483289718628, -0.26433488726615906, -0.23060676455497742, 0.060392312705516815, -0.10248851776123047, -0.1320018619298935, 0.029993431642651558, 0.1879260241985321, -0.13840222358703613, -0.21055559813976288, -0.08308998495340347, -0.14578738808631897, 0.06007662042975426, -0.10086363554000854, -0.06942757219076157, -0.13137365877628326, 0.23662051558494568, 0.09469610452651978, 0.019221199676394463, 0.10713233053684235, 0.18079283833503723, -0.0339096263051033, 0.03652825951576233, 0.07357265055179596, -0.06555099785327911, -0.07926388829946518], [0.06578241288661957, -0.11984516680240631, 0.14991728961467743, 0.09219980984926224, -0.1500389128923416, 0.042349908500909805, -0.06845749169588089, 0.03575610741972923, -0.07949158549308777, 0.09531936049461365, -0.030037015676498413, -0.09859874844551086, -0.20306290686130524, -0.1123194769024849, 0.2754737436771393, -0.12476222217082977, 0.023636573925614357, -0.03249867260456085, 0.07603397965431213, 0.225201815366745, -0.25687384605407715, -0.2004394680261612, -0.045106735080480576, 0.1444099098443985, 0.02093091607093811, -0.25719016790390015, 0.14107052981853485, -0.01291985809803009, 0.2711673676967621, 0.03665105998516083, -0.11067092418670654, 0.10880134999752045, 0.1012914776802063, -0.08601055294275284, -0.12420662492513657, -0.004718506708741188, -0.12663517892360687, 0.06698111444711685, 0.09625624865293503, -0.06401706486940384, -0.058694493025541306, 0.08456198871135712, -0.020029697567224503, -0.0753633975982666, 0.11597967147827148, 0.19426056742668152, 0.1523483693599701, 0.17815366387367249, 0.03714388236403465, -0.2727293372154236, 0.2428232580423355, 0.20203205943107605, 0.044100645929574966, -0.07597815990447998, -0.12323681265115738, 0.15040656924247742, 0.036167263984680176, -0.01333773136138916, 0.14896327257156372, -0.00745426956564188, 0.23639218509197235, -0.05473797395825386, 0.17886607348918915, -0.04284064471721649], [-0.15628404915332794, -0.0528191514313221, 0.03863131254911423, 0.12401174753904343, -0.10652349144220352, 0.013696369715034962, -0.038841363042593, 0.06264685094356537, -0.04323435574769974, 0.10922353714704514, -0.06489381194114685, -0.21731805801391602, -0.03203447163105011, -0.04417217895388603, 0.1578979790210724, 0.24441495537757874, 0.029590506106615067, -0.2386392503976822, -0.02398134209215641, 0.020153691992163658, -0.01921154372394085, 0.15682682394981384, 0.09212799370288849, -0.16812863945960999, 0.07003694027662277, 0.029539570212364197, -0.026782672852277756, 0.0014161643339321017, 0.17132233083248138, -0.049623697996139526, 0.16066603362560272, -0.012550702318549156, 0.20247478783130646, 0.19340355694293976, 0.1821412295103073, 0.287946492433548, 0.21473923325538635, -0.23428753018379211, 0.24330037832260132, 0.019696436822414398, 0.04224373772740364, -0.1608712077140808, -0.07884541898965836, -0.12483149021863937, 0.11398261040449142, 0.1341053992509842, -0.03416897729039192, -0.08302023261785507, 0.1438281536102295, -0.26383644342422485, -0.14575906097888947, 0.15103626251220703, 0.014509528875350952, 0.14100703597068787, -0.1496513932943344, -0.0590437687933445, -0.07313032448291779, 0.09713978320360184, 0.05730058625340462, -0.08998139202594757, 0.1588049679994583, -0.03170258179306984, 0.1398472934961319, -0.19708465039730072], [-0.10938158631324768, 0.16641975939273834, -0.1215919479727745, -0.25916361808776855, -0.04438664764165878, 0.07108701020479202, 0.3026929199695587, 0.019627513363957405, -0.015662385150790215, -0.011272784322500229, 0.09326770901679993, 0.1481768637895584, 0.1806819587945938, -0.10971778631210327, 0.025293966755270958, -0.010814610868692398, -0.0368257537484169, 0.06894754618406296, -0.18431469798088074, -0.08335090428590775, 0.13347317278385162, 0.1312207579612732, 0.02973996475338936, 0.1341407746076584, 0.3086709976196289, 0.16389383375644684, 0.059031449258327484, -0.010958513244986534, -0.22625316679477692, 0.10638042539358139, -0.1987869292497635, -0.05089220777153969, -0.17893990874290466, -0.12096943706274033, 0.09379123151302338, 0.025124454870820045, 0.2898422181606293, 0.1980506330728531, -0.12154997140169144, 0.0817706286907196, 0.19066466391086578, -0.18143711984157562, 0.1740012764930725, -0.1471906304359436, 0.03689802065491676, 0.15606743097305298, -0.04469185322523117, 0.13087321817874908, 0.25123700499534607, -0.1765778660774231, -0.1288686841726303, -0.028152454644441605, 0.11489585041999817, -0.19320228695869446, 0.22209656238555908, 0.08557043224573135, -0.009111118502914906, -0.16351954638957977, 0.24436290562152863, 0.23701302707195282, 0.0766787901520729, -0.12367716431617737, 0.25673922896385193, -0.010065487585961819], [0.07788846641778946, 0.292093962430954, -0.09445074945688248, 0.07473921030759811, 0.07709765434265137, 0.0552484467625618, -0.122761569917202, -0.13136519491672516, -0.061621807515621185, -0.28336045145988464, 0.04840756207704544, -0.08942566812038422, 0.055991411209106445, -0.02392462082207203, -0.11888428777456284, 0.10907237976789474, -0.2647688686847687, -0.020881637930870056, 0.23667733371257782, 0.18782085180282593, -0.1167633906006813, -0.04118834808468819, 0.03341788053512573, -0.13592931628227234, 0.13069385290145874, -0.07517698407173157, 0.045154061168432236, -0.17563197016716003, 0.03407903015613556, 0.005099279340356588, 0.04729878157377243, 0.08192039281129837, -0.012673832476139069, -0.041486706584692, -0.010681179352104664, -0.24549590051174164, 0.08499018847942352, 0.20847740769386292, 0.2074522078037262, -0.06401342898607254, 0.2994050681591034, 0.013312950730323792, 0.10840379446744919, 0.2629334628582001, 0.1554732769727707, -0.13264118134975433, -0.00462876632809639, 0.011402085423469543, -0.07211989164352417, -0.08071337640285492, 0.021105971187353134, 0.10505948960781097, 0.09343736618757248, 0.2821340560913086, 0.020373929291963577, 0.08183781802654266, -0.04101124778389931, 0.06291966140270233, 0.09173362702131271, -0.1761578768491745, 0.12464635074138641, -0.17067217826843262, -0.02258269302546978, 0.1427845060825348], [0.06372305750846863, 0.030814237892627716, 0.04521334543824196, 0.07586130499839783, 0.0522984117269516, -0.024784456938505173, 0.09820718318223953, 0.14997270703315735, -0.001202327897772193, 0.04336518049240112, 0.04717526212334633, 0.17921462655067444, -0.16646316647529602, 0.25409284234046936, -0.11329637467861176, -0.0009094015113078058, 0.05426220968365669, -0.06101498007774353, 0.008327141404151917, -0.0777469128370285, -0.05342637002468109, 0.2605019807815552, -0.04140955209732056, 0.09008944034576416, -0.1321534365415573, 0.1899493783712387, -0.1375720202922821, 0.18463382124900818, 0.006071194540709257, 0.02014717273414135, 0.05558302626013756, -0.09424817562103271, -0.07168187201023102, 0.13606961071491241, -0.18988659977912903, 0.10105033218860626, -0.21158532798290253, -0.05685361102223396, 0.20521193742752075, -0.06256484240293503, 0.04243803396821022, 0.17660637199878693, -0.13609138131141663, -0.02272893115878105, 0.14190290868282318, 0.0016770989168435335, -0.20965959131717682, 0.028557129204273224, -0.06281162798404694, -0.1941109597682953, -0.1862405389547348, -0.008436471223831177, 0.08841150254011154, 0.15024372935295105, -0.2124098688364029, 0.1045474037528038, 0.16898289322853088, 0.1588168889284134, 0.12781476974487305, -0.023096514865756035, -0.15024146437644958, 0.08299995213747025, 0.006148922257125378, 0.07027868181467056], [-0.22637847065925598, -0.04216931387782097, 0.11970102787017822, 0.09301216155290604, 0.0564441904425621, -0.08538175374269485, 0.3102441728115082, 0.14590328931808472, -0.1900152862071991, 0.188156858086586, -0.24106229841709137, -0.1670888066291809, -0.04550221562385559, 0.16354364156723022, -0.11661642789840698, -0.18317058682441711, 0.014199948869645596, 0.13450774550437927, -0.18973904848098755, -0.20174002647399902, -0.13401366770267487, 0.2642797827720642, 0.0013883993960916996, 0.16587838530540466, 0.021782103925943375, 0.20946933329105377, 0.2767849862575531, -0.04862251877784729, 0.2712860703468323, 0.06649480015039444, -0.09116430580615997, 0.13192017376422882, -0.257255882024765, -0.15762445330619812, -0.16851715743541718, 0.19027335941791534, -0.0511283241212368, -0.026646126061677933, -0.02755638398230076, -0.1903710961341858, 0.1184735968708992, -0.03121984377503395, 0.1089060828089714, 0.1177968755364418, 0.08078032732009888, 0.08934810012578964, -0.15898042917251587, 0.20243756473064423, 0.012365663424134254, 0.21402610838413239, 0.10258346796035767, 0.11569958180189133, -0.20040826499462128, 0.17881467938423157, -0.040788598358631134, 0.27580127120018005, 0.0657004565000534, -0.12998606264591217, 0.011848680675029755, -0.13908301293849945, 0.07842208445072174, 0.00851417426019907, -0.00565012451261282, -0.06288599222898483], [0.02006121166050434, 0.11796533316373825, 0.23473194241523743, 0.047948207706213, 0.15490391850471497, 0.14553424715995789, 0.1585865616798401, 0.011656968854367733, -0.058916155248880386, -0.11630108952522278, -0.01616070047020912, 0.02311897464096546, 0.06218419596552849, -0.1571204662322998, -0.004220673348754644, 0.09601153433322906, 0.017345381900668144, -0.04838604852557182, -0.03995708003640175, -0.20477333664894104, -0.1775069236755371, 0.27316415309906006, -0.026890840381383896, -0.10432883352041245, -0.0464993417263031, 0.06321769952774048, -0.16115893423557281, 0.03964259847998619, -0.10985703766345978, -0.1798856556415558, 0.002757185371592641, 0.20305432379245758, 0.15302938222885132, 0.3613111078739166, -0.23825787007808685, -0.09414682537317276, 0.09982126206159592, 0.11734625697135925, 0.03685826435685158, 0.15968528389930725, 0.2291245311498642, 0.017655638977885246, -0.06782593578100204, -0.19800986349582672, -0.1681024730205536, 0.2444976270198822, -0.08076618611812592, 0.24002119898796082, 0.1034499853849411, 0.2686159312725067, -0.0240839384496212, -0.09950974583625793, -0.10153960436582565, -0.13262635469436646, 0.15178319811820984, -0.218118816614151, -0.0662287175655365, -0.027859175577759743, 0.16057032346725464, 0.12214531749486923, -0.052949633449316025, 0.0879526361823082, -0.23928268253803253, 0.07364850491285324], [-0.02304551564157009, -0.11148782819509506, -0.14430059492588043, -0.12805621325969696, -0.08159162849187851, 0.14316050708293915, 0.17114780843257904, 0.1169503852725029, 0.05223287269473076, 0.022917281836271286, 0.0010924626840278506, 0.19723226130008698, 0.03830451890826225, -0.07130677998065948, 0.025123003870248795, -0.12828291952610016, -0.2890934646129608, 0.25540873408317566, 0.09127691388130188, 0.10247161984443665, 0.4802100658416748, -0.30711081624031067, -0.2167130410671234, -0.09479224681854248, 0.15634621679782867, -0.06318259984254837, -0.2565363943576813, 0.09382645785808563, -0.1682542860507965, 0.17469055950641632, -0.16862589120864868, 0.13561975955963135, 0.12319698929786682, 0.009299702942371368, 0.15051186084747314, 0.05709906294941902, -0.1062324047088623, 0.0917905792593956, -0.11851153522729874, 0.07377410680055618, 0.10154068470001221, 0.09187726676464081, -0.03826502338051796, 0.22456906735897064, -0.2813063859939575, -0.17828373610973358, -0.05625335872173309, 0.02893652580678463, 0.22448760271072388, -0.16771329939365387, 0.18751251697540283, -0.048713892698287964, 0.021602384746074677, -0.0345599465072155, 0.09765549004077911, 0.19851627945899963, -0.1293143481016159, 0.15153710544109344, -0.0191289521753788, 0.01768670044839382, -0.18911439180374146, 0.027406034991145134, -0.1345636248588562, -0.10532976686954498], [-0.1168079823255539, 0.019763270393013954, 0.04897550493478775, -0.05455726757645607, 0.14223574101924896, -0.10236769169569016, 0.17897264659404755, -0.06364160031080246, 0.04629787057638168, 0.01593625545501709, -0.04779932275414467, 0.09763220697641373, 0.16717831790447235, 0.06474100053310394, 0.16905680298805237, -0.09505261480808258, -0.09830230474472046, -0.16336306929588318, 0.19362223148345947, -0.09512478113174438, 0.22973614931106567, -0.07361019402742386, 0.0965566411614418, 0.20463290810585022, -0.16267523169517517, -0.22223635017871857, 0.008948367089033127, -0.2416302114725113, 0.10622844845056534, 0.05899321660399437, 0.016686970368027687, -0.0857892856001854, -0.10672330856323242, -0.14813527464866638, -0.07153143733739853, -0.12062261998653412, -0.10658316314220428, -0.026515386998653412, -0.20981766283512115, 0.007398976944386959, 0.03519685938954353, -0.15267209708690643, 0.03713556379079819, 0.1513391137123108, 0.0330919474363327, 0.05696931108832359, -0.029723746702075005, -0.034826137125492096, 0.010957949794828892, 0.0025643815752118826, -0.16365355253219604, -0.010900294408202171, 0.1631084382534027, -0.006727949250489473, -0.20959492027759552, -0.09749026596546173, 0.015367979183793068, -0.06028375402092934, 0.03068612702190876, -0.09873181581497192, -0.07326893508434296, 0.021692730486392975, -0.310513973236084, 0.13439331948757172], [0.16853003203868866, 0.14157286286354065, 0.13608074188232422, 0.18333837389945984, 0.17899969220161438, -0.07915297150611877, 0.17586009204387665, -0.025538582354784012, 0.14611460268497467, 0.1871255785226822, -0.04780779778957367, -0.06904926151037216, 0.02479882724583149, 0.1730690449476242, 0.10439693182706833, -0.300087571144104, 0.005685825832188129, -0.0756886675953865, 0.00839047972112894, 0.16283956170082092, 0.012649452313780785, -0.22682543098926544, 0.2047245055437088, -0.06106038764119148, 0.07540905475616455, 0.1463431566953659, 0.08747997879981995, 0.1536416858434677, 0.2600661814212799, -0.11164576560258865, -0.03325816988945007, -0.10714905709028244, 0.13565677404403687, 0.25874361395835876, 0.010841392911970615, 0.09663785994052887, -0.058452390134334564, -0.28576236963272095, -0.1449345052242279, 0.10104784369468689, 0.15399159491062164, 0.2198035567998886, -0.16181884706020355, -0.3392326831817627, 0.13070625066757202, 0.06348167359828949, -0.05459089204668999, 0.26963621377944946, -0.0630989670753479, 0.21761125326156616, 0.05402177572250366, -0.014966316521167755, 0.11242090165615082, -0.15014977753162384, -0.03072824887931347, 0.0018399988766759634, 0.13695593178272247, -0.06438236683607101, -0.16065886616706848, -0.04287942871451378, 0.013629395514726639, 0.042015064507722855, -0.1350962221622467, -0.012884460389614105], [-0.021661005914211273, -0.050050657242536545, 0.1736173778772354, -0.07236745208501816, 0.25688526034355164, 0.11928194016218185, -0.10300258547067642, -0.14708279073238373, 0.25316908955574036, -0.1977037489414215, 0.16334404051303864, -0.07282137125730515, 0.10215359181165695, -0.16500139236450195, 0.004121543373912573, 0.11115878820419312, 0.27007946372032166, 0.040171921253204346, 0.017275769263505936, -0.004015716258436441, -0.24358272552490234, -0.2067386507987976, 0.21799826622009277, 0.08127998560667038, -0.11894511431455612, 0.08756375312805176, -0.020636118948459625, 0.014964859932661057, 0.007093390915542841, -0.03422800078988075, 0.06174437329173088, -0.11997707933187485, 0.006431305315345526, -0.023902444168925285, 0.06807311624288559, -0.14330515265464783, -0.27731451392173767, 0.01806541346013546, -0.11885897070169449, 0.025986336171627045, -0.2560306787490845, 0.1571446657180786, 0.19030024111270905, 0.03202785551548004, -0.009566068649291992, 0.09271856397390366, -0.01611650176346302, 0.0666077509522438, -0.019363336265087128, 0.05992012843489647, -0.13803933560848236, -0.06554844975471497, -0.09775180369615555, -0.01739484630525112, 0.07896271347999573, 0.10256728529930115, 0.11879082769155502, 0.18123281002044678, 0.22964830696582794, 0.0803523138165474, -0.22989590466022491, 0.00973483920097351, -0.18306155502796173, 0.019863145425915718], [0.0964452400803566, 0.013569130562245846, 0.0900566503405571, 0.04789617285132408, 0.15427768230438232, -0.2081262618303299, 0.15292978286743164, 0.0694376602768898, -0.12050057202577591, 0.03540581837296486, 0.2699543535709381, -0.08252411335706711, 0.20415261387825012, -0.2505339980125427, 0.0066156284883618355, -0.017257874831557274, -0.23376604914665222, 0.09857993572950363, -0.08225805312395096, -0.043630894273519516, 0.0045658256858587265, 0.24095259606838226, 0.054052963852882385, 0.1402273178100586, -0.05991985276341438, 0.030467968434095383, 0.08186640590429306, -0.1434362828731537, 0.10585081577301025, 0.0039922320283949375, 0.21749535202980042, 0.05612679570913315, 0.26390284299850464, -0.21388638019561768, 0.0780424252152443, -0.010349422693252563, 0.17202845215797424, -0.0003568360407371074, 0.07841836661100388, 0.2684708535671234, 0.08858412504196167, -0.12770690023899078, 0.19241681694984436, -0.10076246410608292, 0.04770519584417343, 0.016288407146930695, -0.017324941232800484, 0.05128740146756172, -0.23651058971881866, 0.06367319822311401, -0.23850324749946594, 0.1880948394536972, 0.02744286134839058, 0.060010876506567, 0.004164350219070911, -0.036316752433776855, -0.15341788530349731, 0.07551125437021255, -0.08848143368959427, -0.14197954535484314, 0.1484128087759018, 0.270449161529541, 0.2587857246398926, 0.19852818548679352], [0.0277861300855875, 0.18708094954490662, 0.10784908384084702, -0.016795797273516655, 0.07089201360940933, 0.17505191266536713, -0.08387591689825058, 0.10772271454334259, 0.10113277286291122, -0.04364858567714691, 0.24574244022369385, -0.024094950407743454, 0.10291511565446854, 0.19114603102207184, 0.07346246391534805, 0.1085447296500206, 0.06872860342264175, -0.12806077301502228, -0.11538562923669815, -0.07338152825832367, -0.07956970483064651, -0.1234881579875946, 0.06469561904668808, -0.032547153532505035, -0.08547071367502213, 0.03840489685535431, 0.05933237448334694, -0.1547122597694397, -0.16276273131370544, -0.04549846053123474, 0.20736075937747955, -0.17036791145801544, -0.16570328176021576, 0.2488650232553482, 0.05378781259059906, -0.02306605502963066, -0.13541238009929657, -0.15916772186756134, -0.02601776458323002, -0.15947690606117249, 0.4702344238758087, -0.07320486754179001, -0.06675338000059128, 0.015227803960442543, 0.022737229242920876, 0.12576356530189514, -0.02211020328104496, 0.20998911559581757, 0.12644048035144806, -0.04177991300821304, -0.2117765098810196, -0.03364448994398117, -0.016453763470053673, 0.2303193211555481, 0.09111271798610687, -0.05095185711979866, 0.15353679656982422, 0.2262648195028305, -0.04484403878450394, -0.021116910502314568, 0.00325642223469913, -0.0737467035651207, 0.026134759187698364, 0.13926328718662262], [-0.06979317963123322, -0.06337440758943558, -0.11264879256486893, -0.020555416122078896, -0.0158191230148077, -0.07671520113945007, -0.2965973913669586, 0.22349973022937775, 0.046992816030979156, 0.24108342826366425, 0.073417067527771, -0.161271333694458, 0.17470626533031464, 0.028859885409474373, 0.00748680904507637, 0.1384977251291275, 0.2625506818294525, 0.22960543632507324, 0.15313634276390076, 0.055364251136779785, 0.04602319747209549, 0.09792591631412506, 0.1215904951095581, -0.015146823599934578, 0.1623767912387848, 0.2641974091529846, 0.037981707602739334, 0.050364941358566284, -0.12648066878318787, -0.04624375328421593, -0.14198853075504303, -0.09670258313417435, 0.004982813727110624, -0.0810680165886879, 0.22103451192378998, 0.14112557470798492, 0.013145281933248043, 0.09138655662536621, -0.1158611997961998, 0.1361040323972702, 0.3066348135471344, -0.08628366887569427, 0.03318694606423378, -0.06158754974603653, 0.0958288162946701, 0.050820957869291306, 0.114515021443367, -0.12958462536334991, 0.06322155147790909, -0.09127236902713776, -0.10415638983249664, 0.250764936208725, -0.226950541138649, 0.1323871612548828, 0.07597481459379196, 0.12016383558511734, 0.016057897359132767, -0.1401258111000061, -0.09038504958152771, 0.041273683309555054, -0.040565211325883865, 0.13401320576667786, -0.09083203971385956, -0.18338511884212494], [-0.07004734128713608, 0.15118061006069183, -0.1779249906539917, -0.029960978776216507, -0.14221011102199554, 0.18290510773658752, 0.03211197629570961, -0.031162956729531288, -0.10585338622331619, 0.2139853984117508, 0.18594051897525787, 0.1524517983198166, -0.1255825310945511, 0.14837299287319183, 0.29013925790786743, 0.07327640056610107, -0.05791589990258217, -0.06314053386449814, 0.18255427479743958, 0.13987135887145996, -0.0007625038269907236, 0.061357662081718445, 0.03311671316623688, 0.07353555411100388, 0.0013237984385341406, -0.014816153794527054, -0.14147593080997467, 0.27416929602622986, 0.05795326083898544, 0.10554233938455582, 0.024413008242845535, 0.06183202192187309, -0.12739621102809906, 0.013415866531431675, -0.042709026485681534, 0.11293380707502365, 0.12672574818134308, -0.11187461018562317, 0.13717612624168396, 0.13253358006477356, 0.5955277681350708, 0.12020407617092133, -0.18635766208171844, 0.08883695304393768, -0.07722049951553345, 0.17850029468536377, -0.03195125609636307, -0.027489909902215004, 0.04711382836103439, 0.025502583011984825, 0.10255654901266098, -0.017827918753027916, 0.06672285497188568, -0.19006851315498352, 0.09598027169704437, 0.23978321254253387, 0.13049985468387604, 0.16027504205703735, 0.10160700231790543, -0.23042580485343933, -0.17939674854278564, -0.1303538978099823, 0.05443919077515602, -0.19461801648139954], [0.16370254755020142, -0.09300131350755692, 0.024127747863531113, 0.06819155067205429, -0.1553599238395691, 0.17356185615062714, 0.07276199012994766, 0.002767574042081833, -0.15879739820957184, -0.2517547905445099, -0.1986994743347168, -0.1570620834827423, -0.1934022605419159, 0.04620868340134621, 0.2071343958377838, -0.00911100022494793, -0.14404422044754028, 0.138504758477211, -0.12592703104019165, -0.16786621510982513, -0.17859549820423126, 0.2558046877384186, 0.03622271120548248, -0.06842441111803055, 0.2667580544948578, 0.2622108459472656, 0.14873988926410675, 0.043509867042303085, 0.1173020526766777, 0.027877286076545715, 0.1587374210357666, -0.0932212546467781, -0.09421759843826294, 0.06681732088327408, 0.32177963852882385, 0.1826924979686737, 0.14568841457366943, 0.08880527317523956, 0.09297776967287064, -0.08432123064994812, 0.0738065168261528, 0.0845184251666069, -0.1551874577999115, -0.2825276553630829, 0.01960817538201809, -0.07315143197774887, 0.03451190143823624, -0.10613054037094116, -0.11297643184661865, 0.012504566460847855, -0.10696157813072205, -0.07789843529462814, -0.18555164337158203, -0.021391956135630608, 0.06715673953294754, -0.06587439030408859, 0.1100802943110466, 0.18731552362442017, 0.1296984851360321, 0.14643114805221558, 0.3657519817352295, 0.3519727289676666, 0.30071699619293213, -0.19438877701759338], [0.1398898810148239, -0.11048416048288345, -0.05889054015278816, -0.01606971211731434, -0.0710086077451706, 0.11536842584609985, -0.07468745857477188, 0.24429894983768463, 0.2736596167087555, 0.13114061951637268, -0.14780917763710022, -0.1444006860256195, 0.21901917457580566, 0.1777273416519165, 0.08397847414016724, 0.06478787958621979, -0.24848687648773193, 0.022530583664774895, -0.12462307512760162, 0.08024294674396515, -0.08154021203517914, -0.017410948872566223, 0.17739848792552948, 0.09258464723825455, 0.10999350994825363, 0.03177696466445923, -0.21430446207523346, -0.030052173882722855, 0.20850510895252228, -0.06581186503171921, 0.0472945012152195, -0.11274288594722748, -0.2469220906496048, -0.409050315618515, -0.0466424934566021, 0.2220970243215561, 0.08339247107505798, 0.10649914294481277, 0.15932270884513855, 0.009421929717063904, 0.10552415996789932, 0.03531958535313606, -0.03942741081118584, -0.19372747838497162, 0.3288281261920929, 0.04651782661676407, -0.02936684526503086, 0.2115882784128189, 0.14718540012836456, 0.0442965067923069, -0.24091918766498566, -0.0716857984662056, -0.09075889736413956, -0.05659203603863716, -0.09866781532764435, -0.027855293825268745, -0.06350197643041611, 0.18151645362377167, 0.07336155325174332, -0.03262508660554886, -0.016738995909690857, -0.022438805550336838, 0.04369311034679413, 0.029967566952109337], [0.03352108597755432, -0.15012721717357635, -0.11354272067546844, -0.19455499947071075, 0.05602417141199112, 0.11808129400014877, -0.13789725303649902, -0.23334315419197083, 0.05894678086042404, 0.0955110639333725, 0.13539448380470276, -0.05125262960791588, -0.17674876749515533, 0.09139931201934814, -0.028110748156905174, 0.10367172211408615, -0.08914791792631149, -0.1407429426908493, -0.05498495697975159, 0.02867612987756729, 0.21924354135990143, -0.10785815864801407, -0.06777621805667877, -0.2497948855161667, 0.22059783339500427, 0.12752477824687958, -0.01645524986088276, -0.022055894136428833, -0.17980006337165833, 0.13732178509235382, -0.050295259803533554, -0.06821610778570175, -0.0878215804696083, 0.49829450249671936, 0.01205145101994276, 0.08652243763208389, -0.0014662047615274787, 0.10629964619874954, -0.2696986496448517, -0.013159957714378834, -0.09592601656913757, -0.11327817291021347, 0.009384975768625736, 0.13168472051620483, 0.13310179114341736, 0.08879289031028748, 0.06919438391923904, 0.051917899399995804, 0.050043050199747086, 0.14134187996387482, 0.016232196241617203, 0.2047630399465561, 0.10785895586013794, 0.1570538431406021, 0.1165916845202446, -0.07196113467216492, -0.15608859062194824, 0.14037883281707764, 0.19483263790607452, -0.002182190539315343, 0.13772368431091309, 0.11511123925447464, -0.05695675313472748, -0.017949463799595833], [0.017303956672549248, -0.255136638879776, -0.1543024629354477, 0.1150444895029068, -0.0050134980119764805, 0.08497665077447891, 0.08153805136680603, 0.03611366078257561, -0.023268111050128937, 0.01887744665145874, 0.2009972631931305, -0.07215537875890732, 0.0951446145772934, 0.021901192143559456, 0.06036034971475601, -0.03663799539208412, -0.16238176822662354, -0.4256393015384674, -0.2333293855190277, 0.1996706873178482, 0.1237974762916565, -0.0031924950890243053, -0.16228988766670227, -0.10770276188850403, -0.18326976895332336, 0.1559663563966751, 0.027518432587385178, 0.0016746444161981344, 0.028905978426337242, 0.24238671362400055, 0.10285043716430664, -0.13231326639652252, 0.05366598814725876, 0.1039600521326065, 0.03100506402552128, 0.07960935682058334, -0.05938003584742546, -0.19548200070858002, 0.22328807413578033, 0.09265782684087753, 0.12356684356927872, 0.23660172522068024, 0.07267837971448898, -0.0015131696127355099, 0.03851285204291344, 0.22374233603477478, -0.10211832076311111, -0.15019935369491577, -0.03335953876376152, 0.2259243279695511, 0.0945030227303505, 0.10097185522317886, -0.10188505053520203, -0.02444511093199253, -0.19279254972934723, -0.054223157465457916, 0.032102253288030624, -0.1442756950855255, -0.07104996591806412, -0.04748541861772537, -0.10239388793706894, -0.11112839728593826, -0.14147067070007324, -0.22248955070972443], [0.08165707439184189, 0.003051436273381114, -0.20421303808689117, 0.29752710461616516, 0.058769915252923965, 0.08941254019737244, -0.01237100176513195, 0.17278650403022766, 0.23768135905265808, 0.005660377908498049, -0.07223192602396011, -0.15996523201465607, -0.08325330913066864, -0.12057048827409744, -0.1262962818145752, -0.06533952057361603, -0.1466655135154724, 0.1593295931816101, -0.08899319171905518, -0.18485352396965027, -0.13803963363170624, 0.1368805468082428, -0.09619622677564621, 0.06838846206665039, 0.059229686856269836, -0.1837083250284195, 0.029485492035746574, 0.10592298954725266, 0.10309138149023056, -0.04193667694926262, 0.1951833963394165, 0.12576653063297272, 0.2504664659500122, 0.23154044151306152, -0.2675592601299286, 0.015991035848855972, 0.20956195890903473, -0.14429400861263275, -0.06290790438652039, 0.19906580448150635, -0.059983398765325546, 0.07907292991876602, 0.057004086673259735, 0.11222396790981293, 0.019111456349492073, 0.07614856213331223, 0.012758174911141396, 0.04078501835465431, -0.11423283070325851, -0.014911235310137272, 0.06951159238815308, 0.13028530776500702, -0.21661032736301422, 0.2828521728515625, -0.10857192426919937, -0.08611886203289032, -0.06992290914058685, 0.08627835661172867, -0.13769933581352234, 0.1035156324505806, -0.10713689029216766, 0.33422428369522095, 0.0641401931643486, 0.04643121734261513], [-0.00022833007096778601, -0.2322610765695572, -0.18512681126594543, 0.0434517078101635, -0.08142095804214478, -0.21028274297714233, 0.02782956324517727, -0.24417495727539062, -0.016059275716543198, -0.15251639485359192, 0.10086121410131454, -0.029430091381072998, 0.06323369592428207, -0.030665265396237373, -0.32720863819122314, -0.037777043879032135, -0.14907389879226685, -0.1109226644039154, 0.09532074630260468, -0.2492407113313675, -0.09296699613332748, 0.03530959412455559, -0.11701352894306183, -0.18125955760478973, 0.13498295843601227, 0.08833882957696915, 0.11290322244167328, 0.0247587189078331, -0.27280598878860474, -0.017423115670681, 0.2691141664981842, -0.0885840654373169, -0.04497354105114937, -0.13378432393074036, 0.14087232947349548, 0.2854763865470886, -0.09001386910676956, 0.27755749225616455, 0.12920647859573364, 0.06215709447860718, -0.03055844083428383, 0.2621975839138031, 0.26675572991371155, 0.009768863208591938, 0.01217123307287693, -0.1315692514181137, 0.15188175439834595, 0.2379438877105713, 0.11454244703054428, 0.2028757929801941, 0.04978480562567711, -0.20071344077587128, 